161 64
30 -1.0329568 -0.38801724 -0.883501 -0.04002135 0.021070264 -0.20699087 -0.16904831 -0.36567423 0.048260834 -0.82471794 0.54204184 -0.26389074 0.45044306 0.64315015 -0.5837603 1.012296 0.09724369 -0.14893012 0.40890706 -0.69002163 1.0077842 -0.3518685 -0.37698114 -0.29184726 -0.2919704 -0.31571436 0.4964319 0.4436553 0.25100565 -0.016917458 -0.8608899 0.8391375 -0.3190778 0.62986827 0.6455994 -0.30564198 -0.1949441 -0.34079236 -0.13841197 0.95419466 -0.6504266 -0.52629644 -0.48257545 -0.094569474 -0.20332633 0.028514832 0.33437666 0.5547524 0.18405923 0.46463826 -0.033787705 0.56819594 -0.092616566 0.30142182 -0.16337243 0.22557476 0.20699841 0.112979725 0.5990052 0.059823453 -0.575002 -0.14795975 -0.5073814 -0.45580882
18 -0.24891537 0.8226782 0.5939825 -0.020057527 -1.009482 -1.0212035 0.47428834 -2.1810923 0.5787091 0.5865475 -1.5852262 0.71412724 -0.8875972 -1.2920374 -1.7889087 -0.21681757 -2.5874548 0.04260044 1.1551527 1.096856 1.1429226 0.4737392 0.47307205 0.054868042 0.80539995 -0.6008131 -0.1960451 2.161978 1.02048 1.5055568 0.15752882 2.509174 -0.69284344 -0.6134729 -2.2777426 -0.5817177 1.1043324 0.817384 2.2462728 -1.0341667 -1.3085562 -0.32387373 -0.5364056 -0.2719407 -1.028747 -0.5200206 0.98945713 1.8736521 1.5017909 -0.10191588 -0.5087993 0.21258233 0.94341165 0.9611222 -0.17150128 0.8664037 -0.22700815 -1.0850042 -2.6921535 -0.7367617 -0.86944854 -0.7501353 -0.57001555 -1.0567234
0 -0.3639178 -1.2771106 0.17570858 -1.4946625 -2.1756294 -0.21818635 0.6990587 -0.6489217 -0.07576962 -0.1716674 -0.5444588 0.19075677 -0.3157462 -0.8736835 -1.6804347 0.06907695 -0.897714 -0.98674446 0.06729175 -2.5903416 0.53632814 0.62779564 -0.41049883 -1.7902426 0.86890894 -0.47571236 0.83098406 1.0516907 1.4437538 2.9522307 -1.3509994 2.3770957 -2.1658723 -1.3175987 -0.59172183 0.8836308 0.88189864 0.38559878 0.9415433 -0.35083464 -2.4986954 -0.001192593 -0.0520907 0.22684559 0.33362722 0.7578347 -0.1836946 1.1107198 -0.5822859 -0.44105497 -1.0653263 -0.037515834 -0.8823695 1.0347887 -0.67731726 0.5595883 0.11601832 -1.3172166 -0.9866859 -0.014345902 -2.1684575 -0.5102418 -0.80027235 -1.6615584
39 0.21903177 -1.0795355 -0.7688751 -0.62630177 -1.0565915 -1.6439669 -1.0203038 -1.0739179 -0.87597543 1.216257 -0.57695997 0.524004 0.8192142 1.3696598 -0.82094145 0.15940006 -1.4867963 -1.3345646 -0.19917864 -1.1302495 0.70737904 0.9654419 -0.75454825 0.00643256 -0.06284834 0.59766686 -0.25080985 2.6592515 -0.9156024 1.4174012 -0.9070094 1.7195168 0.07693304 -0.7462311 -1.3159896 -0.8513011 0.55785364 -0.8356899 2.0139966 -1.5912354 -1.253237 0.47105116 -0.25199053 -1.5462121 -0.5532412 0.5605646 1.159597 -0.086489156 -0.7924939 0.15780112 0.042228755 1.4613371 1.3747334 1.4297788 -0.24822345 -1.1522739 0.70172 0.34354025 -1.6732382 -1.539463 -1.0511771 0.69970405 -0.8113353 -0.91458696
34 0.6561081 0.6665867 -0.5770804 0.49761164 -2.478056 -1.2056257 -1.0018389 -1.1555414 0.5566834 -0.38134226 -1.1770048 0.87983644 0.52630126 -0.3189657 -0.9064182 0.4721331 -0.76539814 -1.6628094 0.524792 -0.29218334 0.9864003 0.13308954 -1.0560302 -0.058313973 -0.21950026 1.1945703 -0.77850705 1.4660093 -0.12074737 1.3787445 1.1999197 2.823538 -1.5686903 -0.92473364 -1.121749 0.053666897 0.992606 -0.039758574 1.8375683 -0.4995976 -1.1817542 0.52013373 -0.23204722 -0.9592851 -1.5805259 1.574603 0.4048316 0.14594156 -0.041118737 -0.8797512 2.7397053 -0.6847859 -0.13950223 1.9559072 0.52456164 -0.16680999 0.6350687 1.0802364 0.8966484 0.68493974 -1.6476959 -0.04501324 0.074828975 -1.7841183
3615 -0.13461715 0.6571846 0.348713 0.09360548 -0.651979 -0.6592505 0.30319542 -1.3783661 0.4245964 0.40282062 -1.0779924 0.48766446 -0.6044668 -0.8620235 -1.089037 -0.12813215 -1.64873 0.051159468 0.7782818 0.8500655 0.69944775 0.28620583 0.30960348 0.1484445 0.48027658 -0.36661956 -0.19499524 1.3918325 0.57477397 0.87630254 0.2784841 1.5826013 -0.36624375 -0.37175483 -1.532312 -0.42248502 0.7624366 0.52868414 1.4636973 -0.6523018 -0.7757368 -0.19577514 -0.33356175 -0.1997262 -0.755149 -0.3283588 0.66679466 1.197965 1.0298228 -0.053059127 -0.2349921 0.058354553 0.63534397 0.60750073 -0.04322902 0.58968174 -0.17866577 -0.62919134 -1.7135098 -0.4292288 -0.4984255 -0.47975427 -0.31767875 -0.64707744
723 0.67569643 0.636685 -0.47575545 0.5126994 -2.257534 -1.047024 -0.9217677 -1.0128012 0.46785042 -0.32903963 -1.0574564 0.7811148 0.4710793 -0.31254867 -0.7732843 0.34875524 -0.6139254 -1.5252929 0.43843165 -0.20616399 0.8275779 0.08526249 -0.94801223 0.016938675 -0.19375555 1.1204251 -0.7188939 1.2260612 -0.098208696 1.2097915 1.1937574 2.48886 -1.4144918 -0.87204736 -0.9954587 0.07683889 0.8985723 -0.036276203 1.608424 -0.4670341 -0.95522904 0.48086518 -0.18952721 -0.85255283 -1.4237323 1.4583942 0.29301468 0.06830668 -0.049641035 -0.85901606 2.5657766 -0.6912395 -0.13603853 1.7424626 0.5291738 -0.19780336 0.5601952 0.9973531 0.8778517 0.68178827 -1.4533172 -0.016537275 0.13514405 -1.5875393
2261 -0.65703964 -0.18920268 -0.5704717 -0.027742326 -0.014008447 -0.24414039 -0.13287084 -0.13807218 0.12006463 -0.6057879 0.19977267 -0.060170077 0.33822024 0.38470882 -0.2975255 0.7643483 0.030988296 -0.12189929 0.22545347 -0.4474663 0.60252017 -0.17888738 -0.3909562 -0.28328523 -0.2834871 -0.084912725 0.21444584 0.3818608 -0.017634751 -0.02650298 -0.5653798 0.65539426 -0.22547796 0.43918827 0.3423303 -0.25921437 -0.12322174 -0.18232393 0.030174997 0.6317828 -0.52774066 -0.2380754 -0.27782667 -0.19640838 -0.15935567 0.15188622 0.40291554 0.29243132 0.028612487 0.2903651 0.15554836 0.4010631 -0.035601053 0.41551307 -0.14342803 0.2449874 0.12758629 0.19777478 0.41363487 0.11576777 -0.41977048 -0.10181014 -0.35882205 -0.3336696
570 -0.6836099 -0.20904407 -0.6086798 -0.007864477 0.018897148 -0.22923912 -0.15735126 -0.1387876 0.11550886 -0.6289932 0.1985112 -0.06281231 0.34486854 0.41225725 -0.29073298 0.7703874 0.029740864 -0.10987752 0.27155197 -0.45116723 0.6399809 -0.19340542 -0.40215912 -0.26014212 -0.30144355 -0.10041531 0.22323321 0.4037594 -0.02529456 -0.06033971 -0.59716135 0.6493274 -0.19950604 0.4763188 0.35357827 -0.28324947 -0.14374524 -0.19545196 0.053378396 0.65736866 -0.5105593 -0.29385975 -0.27746147 -0.20617513 -0.16575588 0.12968275 0.42584032 0.30402154 0.047745623 0.31619188 0.15888846 0.4289867 -0.029583706 0.39353943 -0.16010197 0.21607812 0.14099126 0.20816621 0.4289044 0.076003335 -0.4106235 -0.08595553 -0.3737479 -0.32722557
3958 -0.72849375 -0.20564035 -0.6455374 -0.009057573 -0.005243794 -0.23751056 -0.1345841 -0.17670402 0.106129594 -0.6268182 0.24888028 -0.074699774 0.33910203 0.43997943 -0.34022847 0.78896254 0.03433425 -0.12496347 0.28478616 -0.47076702 0.6678164 -0.21628332 -0.38914958 -0.24934253 -0.30696744 -0.13485989 0.2529217 0.4117455 0.0037300163 -0.027037177 -0.6040046 0.6975323 -0.21775609 0.48723596 0.3628057 -0.29807928 -0.12485446 -0.21703745 0.029298 0.67429894 -0.52104616 -0.3057558 -0.3027047 -0.19930796 -0.18803637 0.14431298 0.4018455 0.33980542 0.063257776 0.3310481 0.15177317 0.43996176 -0.019923093 0.4130519 -0.1497734 0.23477519 0.14296266 0.19138761 0.4166021 0.08608818 -0.45111343 -0.1012191 -0.38810474 -0.32951263
408 -0.17505215 -1.0486894 0.23440693 -1.2321458 -1.7337819 -0.07274617 0.6105701 -0.46347803 -0.0911402 -0.08369834 -0.42327678 0.11851425 -0.29667807 -0.75016683 -1.2841275 -0.05792868 -0.6521284 -0.75361544 -0.021857293 -2.0701249 0.3105904 0.52000004 -0.25816453 -1.435824 0.7474043 -0.35882726 0.6665746 0.6972158 1.1845618 2.3697515 -1.0081692 1.7443031 -1.7166727 -1.132683 -0.4675999 0.80375946 0.71291 0.33535826 0.6583725 -0.34127033 -1.9158744 0.05785797 0.014724849 0.24783835 0.34214652 0.59761405 -0.25955176 0.81979585 -0.49642387 -0.39184535 -0.9041839 -0.10768056 -0.7755355 0.7341308 -0.5123944 0.4203597 0.08781222 -1.0873916 -0.8237989 -0.016909188 -1.6719353 -0.41324347 -0.58797395 -1.2734377
2154 -0.11139681 0.6428081 0.33336848 0.10411633 -0.62300646 -0.6275074 0.3040318 -1.3048239 0.40819386 0.39187717 -1.0370153 0.4579921 -0.5865123 -0.8222832 -1.0236493 -0.1439331 -1.5894476 0.038424898 0.72379243 0.8388645 0.6522862 0.27930635 0.30434006 0.14749327 0.45505136 -0.34259823 -0.19991273 1.312864 0.5370973 0.82788366 0.28538623 1.4935571 -0.3346456 -0.36570227 -1.4680399 -0.40811223 0.7227995 0.5126537 1.3961544 -0.62792546 -0.7176237 -0.17037697 -0.3339283 -0.19623122 -0.70881003 -0.28997374 0.632951 1.1247364 0.97456247 -0.058804452 -0.22656117 0.04988933 0.6217587 0.5955621 -0.01939006 0.56355125 -0.16740172 -0.5871369 -1.6440303 -0.4179018 -0.47675937 -0.45232174 -0.3034219 -0.60278684
1510 -0.123647116 0.5997821 0.31155246 0.099219754 -0.6010585 -0.6079381 0.2872396 -1.2633268 0.3869728 0.38587075 -1.0086057 0.4607049 -0.56362766 -0.76537764 -0.9902042 -0.12193921 -1.5210252 0.030391809 0.72265095 0.7825155 0.6449619 0.27378276 0.29671615 0.15833357 0.4275039 -0.33466083 -0.19870655 1.3063565 0.5013298 0.8057841 0.26742154 1.4588134 -0.2962801 -0.34650892 -1.4323213 -0.39158198 0.70734084 0.47777608 1.3684936 -0.6024664 -0.6995504 -0.1701232 -0.30408207 -0.20829958 -0.7048415 -0.27889365 0.64000297 1.0837016 0.94409394 -0.036221407 -0.19047198 0.07184922 0.6046462 0.5934194 -0.033175293 0.5264447 -0.16437112 -0.5579294 -1.5945576 -0.40002078 -0.46242774 -0.43332455 -0.28425804 -0.5973259
344 -0.6005448 -0.15132493 -0.532564 -0.018803027 -0.036163256 -0.24181896 -0.10897071 -0.12812836 0.11299176 -0.54101974 0.16178729 -0.030552601 0.29078543 0.3515979 -0.26802757 0.6909641 0.016594447 -0.1302541 0.23260193 -0.4008742 0.56457675 -0.16627146 -0.3659155 -0.22451375 -0.265343 -0.09611408 0.18922426 0.38863954 -0.011012279 0.00867995 -0.51041996 0.64029074 -0.21869498 0.40420714 0.28092697 -0.25665385 -0.091610186 -0.16446729 0.08480466 0.55564994 -0.48252296 -0.22728345 -0.2502909 -0.21129894 -0.17025724 0.16332294 0.38258743 0.2783588 0.019162219 0.24770178 0.17719148 0.37013608 -0.009575097 0.41243488 -0.14242133 0.22225708 0.10696545 0.17150433 0.35288477 0.11183588 -0.40845102 -0.094778106 -0.32756484 -0.31188428
3723 -0.64610314 -0.19008666 -0.5756777 -0.033265397 -0.00028727448 -0.24081442 -0.135293 -0.14470175 0.11544425 -0.56175923 0.20733486 -0.047677133 0.30609515 0.38625357 -0.2984659 0.74212015 0.021193625 -0.123728245 0.24566306 -0.4279644 0.60548687 -0.17242812 -0.37451944 -0.22746323 -0.2797391 -0.10352113 0.21061203 0.39690915 -0.022048464 -0.011921369 -0.55439866 0.6439059 -0.19423813 0.45320144 0.3148473 -0.26718628 -0.12807488 -0.17883924 0.04898903 0.5977123 -0.49648073 -0.25285867 -0.27314705 -0.20596363 -0.17629698 0.11942992 0.39665985 0.3052447 0.037860904 0.3088369 0.16408168 0.40841517 -0.0044058156 0.3939009 -0.1417195 0.21877186 0.11850336 0.18118872 0.37956375 0.10726754 -0.39983043 -0.08039546 -0.34775117 -0.3075113
3413 -0.54227984 -0.14122349 -0.5161729 -0.027075663 -0.013037269 -0.25057694 -0.12698597 -0.054484103 0.120434344 -0.5106728 0.11638906 0.014257315 0.2832915 0.3415405 -0.20935975 0.68944377 0.03539767 -0.10426908 0.19696096 -0.37645242 0.47129455 -0.13539198 -0.3955275 -0.22257261 -0.29386798 -0.032367226 0.14389549 0.38437977 -0.10916692 -0.022080638 -0.4665165 0.58675766 -0.1736805 0.40106273 0.24153844 -0.27651802 -0.109763436 -0.16271718 0.07017991 0.53940886 -0.4634178 -0.1688755 -0.21804841 -0.23961669 -0.17363122 0.16870324 0.41205505 0.22918428 -0.015990803 0.2622566 0.22926688 0.34616 -0.00048697338 0.4323314 -0.12084492 0.22603783 0.11469234 0.24411528 0.35717565 0.122849986 -0.37345392 -0.07441651 -0.30556917 -0.26439095
403 -0.13083911 0.63605344 0.3104807 0.11278344 -0.58601147 -0.62195617 0.301117 -1.2624509 0.39866263 0.36848423 -0.9810711 0.42929262 -0.5570631 -0.781612 -0.9957951 -0.11833565 -1.518896 0.04389841 0.72000426 0.81489843 0.647905 0.25174448 0.30390584 0.1749627 0.4395584 -0.34548983 -0.18202318 1.2634921 0.5281655 0.79517365 0.26666334 1.44004 -0.32340407 -0.3228841 -1.3916163 -0.4059496 0.7009004 0.48323599 1.3243347 -0.5787806 -0.6860896 -0.17782742 -0.3270611 -0.18978909 -0.68468183 -0.29523584 0.6139206 1.0894982 0.95359707 -0.04487309 -0.20673008 0.055395342 0.6146731 0.54824793 -0.021851473 0.5496927 -0.16921203 -0.57914746 -1.5582999 -0.37436077 -0.45414072 -0.45085484 -0.28504115 -0.5751095
9 -0.41526735 -0.14390516 0.90410453 -1.9786798 -0.7008963 -1.2420422 -1.1199688 -0.82464975 1.1489064 0.2467533 -0.6968356 0.6745218 0.99317926 -1.4233682 -0.5503593 1.0753218 -0.98278314 -1.4285232 0.6594326 -1.9627061 1.0398071 0.5945 -1.9720876 0.5986839 0.94114095 0.52471924 -0.70202106 1.0797958 -0.13754979 1.443561 -1.670626 1.1567138 -1.040097 -0.35089612 -0.79681695 0.3820013 -0.9826992 1.4615357 2.0436122 -1.097124 -1.553841 -0.3670205 0.2240183 -0.56243354 -0.04973592 -0.857919 0.8025343 0.40727812 -0.60655445 -0.49174055 1.3916315 1.0768368 0.23502138 -0.7424472 -0.9702546 0.32171145 -0.5935538 -1.1677518 -0.2465309 0.42785782 -0.8363129 0.50095606 -0.35616815 -1.0335253
3999 -0.4178984 -0.10709227 0.84539074 -1.9052011 -0.6838154 -1.2345576 -1.0737187 -0.835234 1.120415 0.25625598 -0.6823498 0.69104373 0.95425636 -1.3787076 -0.56171894 1.0605781 -0.98407155 -1.3761492 0.63620234 -1.8728172 1.0243171 0.5993174 -1.9121596 0.58281744 0.9119146 0.5136753 -0.67472124 1.1015732 -0.12504908 1.4386007 -1.5955321 1.2079773 -1.0223796 -0.33180705 -0.8200229 0.3378757 -0.9306087 1.4117497 2.010663 -1.0455191 -1.5387285 -0.33549294 0.18440266 -0.5694866 -0.064811386 -0.80975735 0.82212245 0.41592026 -0.55727875 -0.48058668 1.3881553 1.0497069 0.24127842 -0.65157074 -0.92183495 0.33288908 -0.5696468 -1.106494 -0.2669866 0.43567798 -0.8149269 0.4536907 -0.34241614 -1.0150806
29 -0.9305329 -0.76291853 -0.5169528 -1.2977552 -0.8809954 -0.57890886 1.0598122 -0.4228696 0.3783853 1.0065104 0.5526412 1.8475744 -1.4458913 0.4090408 -0.94837314 1.6437302 0.27897003 -0.6727157 0.5317118 -1.254969 0.3448425 0.6964536 0.01384439 0.55504525 0.47608328 0.061447497 0.15042688 2.1146173 0.1233653 1.9328592 0.41698226 2.1583962 -0.6211251 0.10223032 -2.270726 0.54911876 0.28335887 0.44611368 0.34173173 0.10549452 -1.3437309 0.8340832 0.67286825 -1.1307837 -1.295383 0.56222177 0.5654878 1.0818183 0.175413 1.4163895 1.7860448 0.095320754 0.30810347 1.7310542 0.06727655 0.9430208 -1.0494992 0.13311894 -1.0303314 1.2964824 -0.36736932 -0.11266811 -0.19553292 -0.42604685
187 -0.87547183 -0.76298475 -0.4496256 -1.3346057 -0.86536175 -0.49957103 1.1101378 -0.3372501 0.37432468 1.1224294 0.6176813 1.9146677 -1.546951 0.41479114 -0.8582108 1.6010205 0.38003537 -0.67266357 0.5144184 -1.2247679 0.20237753 0.74233353 0.09065588 0.6330985 0.518902 0.09095639 0.1330317 2.0488768 0.0897954 1.9213109 0.54773813 2.0256836 -0.5793847 0.07485589 -2.3521514 0.62682784 0.26190653 0.4594203 0.24206263 0.043668013 -1.2394485 0.9099881 0.7600304 -1.1264178 -1.3053684 0.5469217 0.4895635 1.0316348 0.15533112 1.4527304 1.8536378 0.015349982 0.29117084 1.673654 0.12050105 0.9376588 -1.1176023 0.16091745 -1.0425545 1.3622059 -0.25592846 -0.09634494 -0.10671176 -0.31458047
45 -0.5765511 1.3601098 -0.6377953 -0.5744676 -0.82077134 -1.3536533 0.8779702 0.9757968 0.7286746 0.37352058 -1.3825514 0.7300932 -0.84903187 -0.43813947 -0.02217944 0.12416919 -0.7278576 -1.0016234 -0.2636649 -1.1377853 -0.13309821 -0.43115872 -1.2197133 0.28720132 -1.2173086 -0.6793804 -0.6989861 1.1013193 -0.4938836 2.3058944 -1.2923785 2.0877678 -0.42097047 0.54846203 -1.4023112 -1.0722344 0.36926094 0.12752663 1.3177911 -1.0399671 -0.9197393 -0.3223108 -0.42722845 -1.8854688 -0.00810584 1.8826144 1.4555997 0.4123536 -1.3754747 -0.5375603 0.8862164 -0.042657346 1.0204202 1.6169724 -0.2384241 0.6324233 -0.93158734 -0.882704 -0.85579914 0.4589284 -2.2698789 -0.53548634 -0.29796886 0.56650573
1227 -0.5915566 1.2510761 -0.61966443 -0.5494448 -0.7575137 -1.2896458 0.8382106 0.86938286 0.68678546 0.33177868 -1.2886751 0.69962835 -0.80185986 -0.40628445 -0.06981749 0.16048014 -0.7113167 -0.9413284 -0.2244986 -1.0857775 -0.06540765 -0.40133864 -1.1453077 0.24360746 -1.1270243 -0.65575564 -0.6226527 1.0876683 -0.44795662 2.1760013 -1.2508045 2.0028656 -0.41148782 0.5243526 -1.3209538 -1.0234709 0.3415717 0.124818444 1.2691528 -0.93950015 -0.9082919 -0.32009587 -0.39814082 -1.7863966 -0.028551636 1.7488031 1.4046612 0.44433665 -1.2588887 -0.45808774 0.81353724 0.019422168 0.97740674 1.5502666 -0.22366859 0.61750734 -0.874487 -0.82400405 -0.82608056 0.42961848 -2.1376138 -0.52069795 -0.30511323 0.49862772
3317 0.031501357 0.2300904 1.2723837 0.03663817 -0.03750526 -2.38898 0.5604889 -1.3097184 0.12097162 -0.11038735 -0.04194033 0.20918575 0.60085446 -0.70729643 -0.87260187 0.8181654 -0.82232744 -0.3110313 -1.3106061 0.7239053 1.0129302 1.385759 -0.1925719 -1.2637851 1.5998347 0.42480132 0.15155414 0.80038375 0.14027455 0.85478044 -0.7068512 2.0370386 -1.9380279 -0.24654382 0.09106994 -0.60580856 0.109519914 0.789416 0.9383005 -0.02363229 -1.2214855 1.854941 -0.15554355 -1.1705493 0.7474918 0.79156137 1.5978293 0.10536403 -0.74943084 -0.37624305 0.019742703 1.3532567 0.7332376 1.880011 -0.387892 1.1930073 -0.6872671 -0.11698392 -0.7081115 0.96403664 -0.037954856 -0.6069766 -1.0423424 -1.8373297
36 -0.00996092 0.21770792 1.2550164 0.03544933 -0.06769715 -2.3981886 0.5528791 -1.3458449 0.13636516 -0.1293892 -0.08734031 0.22182691 0.6061219 -0.7099438 -0.9280368 0.8463448 -0.8699152 -0.34022996 -1.2535577 0.6791716 1.0606251 1.3969849 -0.22181003 -1.2781888 1.5915033 0.42201316 0.1599391 0.8757809 0.14820288 0.89168316 -0.73197633 2.129631 -1.951819 -0.2478196 0.0418461 -0.61296433 0.10871216 0.8185601 1.0250349 -0.010303724 -1.297382 1.8172896 -0.16637601 -1.1641843 0.71559 0.79997605 1.6300861 0.1491813 -0.7397852 -0.35919955 0.020588702 1.3833134 0.7301714 1.9229131 -0.4097698 1.1966147 -0.6879613 -0.134103 -0.7598757 0.9294302 -0.08838462 -0.612441 -1.0673836 -1.8907743
2363 -0.59956205 -0.8337076 0.62179214 0.432405 -0.26316258 -0.058382582 -0.0133791305 0.60117126 1.4418797 -0.41200837 -2.090618 1.141331 -0.3454137 0.08872654 0.44602233 0.33059818 -1.0593733 0.14129773 0.81416893 -0.3480329 0.58497244 1.1917465 -0.50671375 -1.3948529 -0.48922908 0.3381292 -0.34641874 2.194686 -0.69311756 -0.40010855 -0.35482082 1.6768034 0.59584755 -0.7826413 -1.3603425 0.31286514 -0.06553996 1.3353412 2.3729856 0.2501962 -1.7338496 0.31120333 1.1442853 -0.360712 -0.4292178 1.0095932 2.0976224 -0.41986677 -0.17929626 0.501313 0.86031497 0.84095734 -0.021954615 2.7094362 -1.2736014 -0.29378542 -0.2354235 0.653061 -1.2208606 -0.5478684 -0.31302804 0.7066404 -0.33274767 -1.238886
42 -0.5874393 -0.807499 0.5810905 0.38153818 -0.27937382 -0.09347094 -0.02929445 0.5716209 1.4119947 -0.39413297 -2.0434551 1.1155907 -0.353086 0.07578011 0.4146066 0.35994443 -1.0643146 0.13529116 0.7925837 -0.36640745 0.5843427 1.1571957 -0.4979685 -1.3496898 -0.48238784 0.34076583 -0.32755795 2.1831253 -0.6890278 -0.3408337 -0.37350583 1.6742752 0.5665492 -0.76470244 -1.3762264 0.30678064 -0.07116964 1.2897029 2.3314304 0.23440115 -1.7224061 0.30539784 1.1019281 -0.38967058 -0.42216328 0.99132276 2.056235 -0.3897802 -0.16875672 0.4924465 0.82118464 0.81958145 -0.023729034 2.641923 -1.2400353 -0.26085004 -0.24445707 0.6227392 -1.2423099 -0.5507874 -0.32937273 0.6737562 -0.32626978 -1.1946743
921 1.0163987 -0.024240864 -0.5080752 -1.9320638 -1.1155138 -0.7749156 -0.96988875 0.09666775 0.6084892 -0.35894302 -1.5945671 1.4409517 0.6410546 -1.2517498 -0.65168715 1.2836621 -1.1333708 0.33393243 -0.69922453 -0.51656204 -1.0888242 0.5212835 -1.4395599 -1.8264004 -0.39039502 1.3352823 -0.70823973 1.5196964 -1.3656541 1.4167799 -0.04825063 1.0426106 -0.4724346 -0.09975405 -1.7059711 -0.676337 0.5071941 -0.0030701724 0.87855434 -0.45158646 -2.1680784 1.0810521 -0.23440614 -0.74468833 -0.95334625 -0.21421145 0.98931366 1.3932955 -0.2836236 0.6820673 0.13039814 -0.5063505 -0.52026874 0.87209123 0.2440824 1.7536293 0.77390844 0.93951297 -0.76278526 -0.20525523 -0.79227835 -0.16575328 -0.6761909 -0.23760472
22 0.95010185 -0.043113064 -0.5577775 -1.8904909 -1.1417814 -0.8092204 -0.96967524 0.018120104 0.5925266 -0.3809147 -1.5711648 1.4002876 0.6646672 -1.2114846 -0.70527565 1.2964516 -1.1676791 0.26197684 -0.6420649 -0.5541388 -0.9744397 0.5129949 -1.4442896 -1.8143042 -0.397003 1.2896254 -0.6872916 1.5631071 -1.3060267 1.452402 -0.09760073 1.1404248 -0.5349845 -0.09702148 -1.6607523 -0.6716842 0.52302295 -0.0046723485 0.923031 -0.44718978 -2.2067897 1.0224355 -0.28576353 -0.74021137 -0.9636682 -0.17489164 1.0192912 1.4005963 -0.26200134 0.65154827 0.12906839 -0.4674886 -0.49078786 0.9038507 0.22277996 1.7200418 0.7922742 0.9066753 -0.75928694 -0.22403626 -0.8622448 -0.17575933 -0.7017302 -0.30368322
3232 -0.63266176 -0.19121063 -0.5705654 -0.0017069993 -0.021406356 -0.24568811 -0.13154149 -0.14715502 0.101872526 -0.56738067 0.18150981 -0.030906286 0.30641803 0.38585538 -0.28200418 0.7283999 0.010068377 -0.123148486 0.23692097 -0.4089172 0.59173197 -0.16400392 -0.37567425 -0.24594189 -0.27099675 -0.07394107 0.20904553 0.41348937 -0.039459918 -0.023538597 -0.5313229 0.6503364 -0.20889197 0.43405676 0.29538643 -0.27648422 -0.10374403 -0.18656015 0.06933861 0.5965125 -0.5144687 -0.23921286 -0.2542093 -0.2186928 -0.17868759 0.15058659 0.4115604 0.28143966 0.03483098 0.2906136 0.16959062 0.41014636 -0.0071604336 0.43238184 -0.14436895 0.22640651 0.1315138 0.20922218 0.3652271 0.080005996 -0.39585546 -0.07543596 -0.34680733 -0.32569343
695 -0.6934654 -0.22927393 -0.6407958 -0.024183545 -0.023781745 -0.24008317 -0.17083946 -0.17913866 0.082286716 -0.6116377 0.23455413 -0.067584634 0.35052368 0.44491836 -0.33390006 0.7965132 0.021274395 -0.13049234 0.28043553 -0.4761092 0.6654369 -0.20152764 -0.39557293 -0.25694415 -0.3000057 -0.102370605 0.23557967 0.4240419 -0.005798569 -0.019897014 -0.59617496 0.6748862 -0.21226172 0.47549117 0.3625732 -0.29057312 -0.12477023 -0.23628768 0.049978975 0.6489256 -0.54153264 -0.29378468 -0.30427963 -0.21287422 -0.19013938 0.11954542 0.40290362 0.32653457 0.04911804 0.32623664 0.15747705 0.4336445 -0.029084843 0.40873224 -0.14191377 0.21902463 0.17130108 0.2195465 0.4154168 0.06525607 -0.4459411 -0.08085271 -0.37607765 -0.34161106
1080 -0.68641376 -0.21625204 -0.598036 -0.03227017 -0.015499204 -0.2268669 -0.12218495 -0.1333489 0.118485376 -0.58827645 0.20769376 -0.041609224 0.30334088 0.4045897 -0.31718466 0.7669095 0.043523885 -0.12784015 0.26342446 -0.4735086 0.63545513 -0.19270079 -0.39232174 -0.2544216 -0.28123406 -0.11972286 0.22711831 0.40576398 -0.002232147 -0.0034354865 -0.5782075 0.68166524 -0.22083636 0.4508232 0.33511403 -0.26066464 -0.13135497 -0.18465175 0.05046882 0.6496042 -0.5290903 -0.26021764 -0.27180785 -0.21608509 -0.1739878 0.14614959 0.40078965 0.31181484 0.03795255 0.3088015 0.17868985 0.40213296 -0.039284434 0.42078024 -0.1481622 0.24281311 0.11245202 0.18371451 0.40960395 0.11602058 -0.42700177 -0.09803617 -0.35740846 -0.32360408
1245 -0.689334 -0.20737363 -0.5757093 -0.010887411 0.0113217 -0.23390299 -0.11067928 -0.15476446 0.10578927 -0.5835224 0.21142533 -0.06318694 0.3060115 0.4094719 -0.31164622 0.75656193 0.010207818 -0.10096492 0.26480463 -0.41760522 0.6400231 -0.16184373 -0.35847297 -0.2461068 -0.27574039 -0.12440023 0.23814845 0.41167173 -0.004938671 -0.028197907 -0.5689454 0.65461594 -0.1911864 0.45027775 0.320129 -0.26962483 -0.12546282 -0.17657457 0.049250953 0.628243 -0.5060821 -0.26359096 -0.26301658 -0.21115968 -0.15864909 0.13333389 0.41885903 0.30982983 0.05331858 0.31450373 0.14570676 0.44026306 -0.0089944545 0.40883803 -0.16519628 0.23184575 0.12022037 0.17829338 0.37290084 0.08807893 -0.39378518 -0.09093704 -0.37241462 -0.33027896
3892 -0.6404169 -0.18505436 -0.5792094 0.0065483507 -0.020844163 -0.23251195 -0.11562158 -0.14861415 0.09943158 -0.5787319 0.19319728 -0.051237796 0.2880724 0.39251894 -0.2949293 0.73319507 0.019838318 -0.118939616 0.24386783 -0.4014673 0.60948247 -0.17137966 -0.356868 -0.23937187 -0.28635192 -0.098180495 0.21233937 0.39619818 -0.008583217 -0.024651183 -0.5259795 0.659515 -0.20787844 0.433354 0.31356135 -0.26823068 -0.11045742 -0.19138703 0.051940773 0.608935 -0.4951283 -0.23506752 -0.27384204 -0.2042345 -0.17827289 0.15804711 0.39365005 0.2971995 0.042649526 0.29370064 0.17165469 0.38816565 -0.02168677 0.43108767 -0.1320214 0.22618872 0.12227665 0.20303516 0.37590456 0.10833519 -0.4096626 -0.08872892 -0.34511757 -0.315331
2585 0.2560372 -0.97231257 -0.65661997 -0.5427876 -0.8527845 -1.4278872 -0.90518767 -0.9266442 -0.8334523 1.1281672 -0.43978444 0.43242043 0.73654723 1.2328444 -0.6727396 0.08522876 -1.2596973 -1.1649134 -0.23840068 -0.95858854 0.5592291 0.85026586 -0.64083886 0.029466385 -0.03056781 0.5254832 -0.21018426 2.2695172 -0.8259211 1.2173467 -0.7690643 1.3600609 0.117386796 -0.6615725 -1.1181054 -0.7482663 0.4590485 -0.7672728 1.6977916 -1.4376407 -1.0049354 0.45045304 -0.22447222 -1.3284767 -0.41109583 0.47134325 0.9704861 -0.13716382 -0.74019676 0.14600156 -0.03127468 1.2995105 1.2036122 1.1718775 -0.20527291 -1.0644699 0.6227844 0.320971 -1.4663963 -1.3806419 -0.8247376 0.63379985 -0.69289124 -0.7472686
3269 -0.07600933 0.596995 0.32284448 0.0854396 -0.5691287 -0.58683157 0.2685558 -1.1832095 0.37156534 0.36813876 -0.9308713 0.41824177 -0.5281692 -0.7661145 -0.9167846 -0.13248035 -1.4200346 0.04579234 0.65725595 0.77705234 0.5778344 0.2658435 0.28467968 0.14043881 0.42744106 -0.302493 -0.19765157 1.1785727 0.48678693 0.7463649 0.28767022 1.3351113 -0.30947563 -0.335629 -1.3365663 -0.36933315 0.66743493 0.47290066 1.2583168 -0.57087886 -0.63442993 -0.1365132 -0.2932206 -0.18649994 -0.6434999 -0.2689678 0.57971156 1.0131953 0.88598317 -0.05971883 -0.1894585 0.029413814 0.5642784 0.51703155 -0.003724836 0.51839817 -0.15871832 -0.5291694 -1.4809457 -0.35585532 -0.39985982 -0.4144208 -0.2635128 -0.55346125
4083 -0.734446 -0.26015717 -0.6103048 -0.01980497 0.0056193545 -0.23418984 -0.14374876 -0.18307571 0.116783276 -0.63325894 0.27169913 -0.07658488 0.36052907 0.44973168 -0.3337844 0.81837624 0.04149151 -0.13676429 0.27880108 -0.48971102 0.7040333 -0.19122384 -0.3952334 -0.27114683 -0.27834645 -0.117492355 0.26702562 0.42792997 0.015039981 -0.038546592 -0.6334234 0.6938126 -0.22605836 0.4734234 0.39986792 -0.2554539 -0.1610982 -0.18510664 0.038691536 0.6951749 -0.5427993 -0.28397152 -0.27866286 -0.1940353 -0.17035103 0.124813445 0.40605474 0.3174219 0.054729592 0.3298282 0.16515703 0.47297695 -0.036344495 0.41504997 -0.16880122 0.20869946 0.13217467 0.19170171 0.44224778 0.09827865 -0.41463777 -0.08314351 -0.3869958 -0.37774822
1611 -0.62625873 -0.19273035 -0.55967546 -0.023974258 -0.008346364 -0.24986687 -0.1556646 -0.10028365 0.11126825 -0.5713698 0.15229337 -0.024099272 0.33440593 0.39816868 -0.2497318 0.74513346 0.015840843 -0.115811236 0.22837673 -0.4292355 0.573717 -0.15585844 -0.4131321 -0.27147415 -0.30551025 -0.05297792 0.18288781 0.41904342 -0.08576273 -0.033048984 -0.551071 0.6374307 -0.18891245 0.43367413 0.3054582 -0.28536215 -0.12662378 -0.17990439 0.07934316 0.597286 -0.5104236 -0.20924534 -0.24246791 -0.23977946 -0.16648136 0.17171487 0.43744904 0.2509941 -0.00047289065 0.29850048 0.19679947 0.41195136 -0.006541906 0.45448858 -0.15197043 0.22459036 0.13357891 0.23455842 0.38352808 0.103013635 -0.4026883 -0.065586634 -0.3576408 -0.3140558
1336 -0.68199575 -0.23288947 -0.6259711 -0.01627947 -0.011827669 -0.22756363 -0.15844336 -0.15598361 0.10219633 -0.6373975 0.24993224 -0.08616013 0.36558363 0.44037163 -0.3082796 0.7876894 0.049569823 -0.11782239 0.2519132 -0.47255206 0.64754814 -0.1968904 -0.3996858 -0.26149902 -0.29036412 -0.09862401 0.2395844 0.38183275 -0.010026932 -0.045982 -0.577364 0.6562748 -0.22138306 0.4613757 0.38710925 -0.2665913 -0.13737194 -0.2218177 0.01546171 0.6835525 -0.51958674 -0.2811086 -0.2931084 -0.1875481 -0.17803784 0.13743956 0.38250798 0.31465402 0.048099816 0.31665975 0.14657433 0.41160566 -0.062139895 0.39330992 -0.14565189 0.2273498 0.15944822 0.21841264 0.46273002 0.09993549 -0.43193868 -0.080055155 -0.36681038 -0.33371493
192 -0.68743765 -0.22127339 -0.59183407 -0.015901372 -0.001997106 -0.24767955 -0.16024984 -0.16168498 0.107772134 -0.6139989 0.20315991 -0.057605833 0.33791333 0.4212547 -0.3191766 0.7759758 0.017163238 -0.12374057 0.26825154 -0.465352 0.65243745 -0.18689126 -0.4071838 -0.25581115 -0.28478143 -0.10150053 0.2299298 0.42204496 -0.016891873 -0.016533535 -0.5936887 0.68783695 -0.223774 0.45121738 0.3557911 -0.27760166 -0.13620482 -0.18485661 0.06999752 0.65087557 -0.53430367 -0.2629803 -0.27775282 -0.2186619 -0.16412757 0.14810185 0.4258336 0.30016202 0.03304438 0.30615795 0.17635325 0.42994067 -0.021982979 0.42688408 -0.15624712 0.21611802 0.14331023 0.20769365 0.417838 0.09882034 -0.43255445 -0.08845734 -0.3751836 -0.34237897
3500 -0.7492577 -0.21244581 -0.65894353 -0.021182187 0.00092636445 -0.25226656 -0.13361572 -0.17270441 0.09556907 -0.6456827 0.28160614 -0.10106009 0.3558148 0.44884527 -0.3432107 0.8221798 0.06654418 -0.13809001 0.26998174 -0.50826275 0.6910433 -0.22294757 -0.3975672 -0.25491256 -0.30237436 -0.14461851 0.2730024 0.40507898 0.018437121 -0.010896526 -0.6261742 0.7001464 -0.24803475 0.4986739 0.40508744 -0.2882174 -0.14590035 -0.23106164 0.00512064 0.71219414 -0.53588086 -0.32127947 -0.3244219 -0.2053282 -0.18069884 0.13498509 0.40791652 0.3521943 0.054621547 0.3343919 0.15688396 0.44011515 -0.03831663 0.401476 -0.14794196 0.24242912 0.13932532 0.18553817 0.45855653 0.11674117 -0.45612648 -0.10168443 -0.39338332 -0.35063764
995 -0.65734446 -0.18877363 -0.5571071 -0.0041312403 -0.0034156379 -0.23311493 -0.1387953 -0.1540248 0.106936984 -0.5926673 0.19354548 -0.06771018 0.31738034 0.38519996 -0.30207264 0.7297 0.0077756913 -0.10638945 0.2581945 -0.4247932 0.6152573 -0.1692834 -0.37193292 -0.26081845 -0.27076757 -0.101942405 0.21392986 0.37815526 0.0065269973 -0.03254524 -0.5725589 0.64500296 -0.22077319 0.442451 0.3415054 -0.2742545 -0.11523097 -0.17028739 0.05436286 0.6197839 -0.5111461 -0.267765 -0.2677803 -0.19563133 -0.15949656 0.12401996 0.39016607 0.29994228 0.044022873 0.28340435 0.14408188 0.40606397 -0.030627606 0.3878377 -0.1572709 0.2317757 0.13624775 0.175127 0.3987698 0.09454212 -0.4127097 -0.096152864 -0.3685715 -0.33498654
3837 -0.73051524 -0.24222945 -0.64110065 -0.012864523 -0.030280558 -0.22709733 -0.1792752 -0.21748225 0.10685685 -0.6596009 0.269514 -0.114866 0.38037395 0.4451093 -0.3848076 0.8017651 0.03322491 -0.14865328 0.29912734 -0.4987284 0.7198094 -0.22385325 -0.38219607 -0.2548906 -0.2749877 -0.124822564 0.27839097 0.40297776 0.067934774 -0.012153173 -0.6145338 0.6967478 -0.25771704 0.47223338 0.4179151 -0.2590697 -0.1332212 -0.22631645 0.029426178 0.68978363 -0.55609506 -0.3261319 -0.3253431 -0.1629461 -0.18612587 0.10122147 0.35851714 0.3559682 0.08413824 0.30993363 0.13635097 0.4277246 -0.05564165 0.37265497 -0.13783024 0.21353917 0.1744884 0.18569358 0.4714253 0.0956746 -0.46784824 -0.095713034 -0.38470015 -0.3867602
1508 -0.6266876 -0.17885493 -0.5503088 -0.0050027543 -0.0020109313 -0.21265224 -0.1273601 -0.14618902 0.107045434 -0.53794426 0.1795645 -0.05197378 0.28623718 0.3767192 -0.2755743 0.6881609 0.013103781 -0.11519299 0.25139415 -0.40741378 0.58584243 -0.16450459 -0.3502006 -0.22327091 -0.26501182 -0.1030217 0.20269878 0.39583492 -0.0025252497 -0.024966775 -0.5234474 0.61734504 -0.19163896 0.41186374 0.29134125 -0.25331938 -0.11449819 -0.16505717 0.05876497 0.5764153 -0.47208437 -0.24453208 -0.25879836 -0.1993297 -0.17163335 0.12526521 0.38112146 0.27489337 0.048141252 0.2863116 0.15930341 0.38793623 -0.016384285 0.37673005 -0.13406017 0.20000009 0.11642686 0.17882186 0.35401314 0.07711038 -0.3853332 -0.07624994 -0.32766256 -0.3074636
1572 -0.6816117 -0.23093161 -0.62140083 -0.026435398 -0.0064033284 -0.25238538 -0.16584824 -0.15461388 0.09596297 -0.60548884 0.22615172 -0.0627705 0.35932618 0.4328997 -0.3206017 0.78247297 0.027435966 -0.13463095 0.25017732 -0.48161334 0.64975476 -0.19396256 -0.39590663 -0.25505602 -0.28539222 -0.08796805 0.22872108 0.4157841 -0.019292807 -0.010347449 -0.5939467 0.65944976 -0.22021796 0.46261075 0.3533756 -0.28092813 -0.1280348 -0.20649144 0.04230843 0.6423685 -0.52460116 -0.26218918 -0.28982127 -0.22017105 -0.16559038 0.14229065 0.41180393 0.30425385 0.025654122 0.31719536 0.15757827 0.44040495 -0.029620688 0.41093543 -0.15523826 0.20979418 0.14756234 0.20175906 0.42607012 0.079878345 -0.43090326 -0.0789977 -0.37801263 -0.33380932
683 -0.67188996 -0.17277421 -0.60521704 0.017244115 -0.03238153 -0.24347124 -0.12890768 -0.17804807 0.09784522 -0.59410566 0.20650284 -0.06319857 0.3223198 0.4028129 -0.32387283 0.74306834 0.0006660266 -0.1160377 0.26966882 -0.4128244 0.6401164 -0.19802618 -0.36880845 -0.25643918 -0.29166648 -0.123475686 0.21822521 0.40809757 0.011321808 -0.0070311255 -0.5548356 0.6897595 -0.22597906 0.4368466 0.3259646 -0.28792796 -0.10005871 -0.2016603 0.051690303 0.63555014 -0.51419866 -0.27517155 -0.29779607 -0.20218816 -0.17940721 0.13789147 0.3900017 0.32506502 0.06175159 0.30384597 0.15228939 0.40010637 -0.017415524 0.41188428 -0.13580972 0.23576178 0.14664559 0.1836174 0.38909695 0.09021917 -0.44250962 -0.112079024 -0.36588228 -0.32300076
3198 -0.5988444 -0.19906665 -0.54078966 -0.0053920466 -0.020461453 -0.22761145 -0.1547716 -0.13791099 0.09462457 -0.5609912 0.16243194 -0.04117608 0.3217117 0.37074876 -0.27910107 0.688921 0.013801405 -0.12466813 0.24298902 -0.41990313 0.57606894 -0.14611144 -0.3723688 -0.2529319 -0.25868958 -0.060714412 0.20145759 0.39137813 -0.020510431 -0.023362381 -0.51310796 0.6201346 -0.20133594 0.40417114 0.30767632 -0.23615287 -0.105018914 -0.17313707 0.07253404 0.5719707 -0.49757805 -0.2250877 -0.25043917 -0.19086112 -0.16461022 0.14444956 0.3897232 0.26906675 0.028909853 0.28030396 0.17630118 0.38338992 -0.03255768 0.39657146 -0.13696097 0.20760871 0.13568266 0.21139246 0.38281363 0.07610436 -0.37939253 -0.076446146 -0.34079027 -0.32336015
3014 -0.70330024 -0.22723387 -0.61139953 0.005460319 0.0066089747 -0.21561642 -0.116762586 -0.18018904 0.08769953 -0.58513165 0.27018258 -0.09610682 0.32194453 0.44635528 -0.3288617 0.75244516 0.050967272 -0.11898214 0.27257282 -0.45551556 0.66765124 -0.20024243 -0.3437658 -0.22725949 -0.2629612 -0.13829157 0.26663452 0.3981684 0.04202381 -0.020119485 -0.57653105 0.66186607 -0.20802534 0.46003845 0.3707062 -0.2546231 -0.1241421 -0.20350286 0.014803969 0.66300994 -0.498919 -0.29968876 -0.2961444 -0.19033717 -0.1590897 0.134279 0.37758508 0.32000107 0.07148189 0.32087275 0.13388391 0.42202735 -0.025081465 0.39473426 -0.14576907 0.18624413 0.13351649 0.17918117 0.40457064 0.09148025 -0.4258576 -0.09875178 -0.36593115 -0.34292334
3752 -0.6457204 -0.18906538 -0.5720523 -0.03612047 -0.016539589 -0.2594405 -0.13379334 -0.1414442 0.10471681 -0.5721121 0.19348001 -0.029827222 0.30458638 0.38067883 -0.3007567 0.76267207 0.016483765 -0.13361064 0.24611627 -0.4343212 0.59239477 -0.15832734 -0.37946916 -0.23918912 -0.26502836 -0.08692698 0.20504384 0.41919088 -0.03591299 -0.0016203764 -0.5332978 0.66257507 -0.22202496 0.43991345 0.2896664 -0.2629152 -0.115593575 -0.17688574 0.05852656 0.60941464 -0.5186126 -0.22078928 -0.27283567 -0.22175562 -0.19089437 0.14432122 0.40971875 0.3082025 0.04119777 0.30302823 0.1871762 0.4016093 -0.015088049 0.43029863 -0.1373529 0.2445222 0.11341011 0.208212 0.38719043 0.109038815 -0.40257373 -0.09538602 -0.35313195 -0.3271722
413 -0.10757661 0.5832468 0.32069105 0.1020453 -0.5513981 -0.5626454 0.27834865 -1.1789435 0.37845445 0.34808195 -0.9297839 0.41523278 -0.52032727 -0.7577832 -0.9039747 -0.12762319 -1.4130155 0.03871011 0.67756313 0.7667331 0.5851152 0.23756051 0.27866244 0.14591101 0.42036486 -0.31611857 -0.1810042 1.1689026 0.48819682 0.72927886 0.26570454 1.3326832 -0.2981171 -0.31706107 -1.3052841 -0.3474701 0.6385729 0.47694007 1.2492062 -0.55093604 -0.6293125 -0.15430042 -0.28350976 -0.16806109 -0.6321077 -0.27792203 0.5715733 1.0092399 0.88202214 -0.061238147 -0.18376914 0.045899525 0.54863477 0.503174 -0.022141235 0.5074814 -0.15679403 -0.52953506 -1.4628586 -0.34835297 -0.41854697 -0.4152038 -0.25937927 -0.54928035
1420 -0.65041906 -0.20093209 -0.57897186 -0.008785283 -0.011423811 -0.23021884 -0.123913296 -0.20862713 0.0822081 -0.5406999 0.22641422 -0.07174239 0.30232865 0.39548448 -0.3341107 0.7178917 0.0039556795 -0.11134242 0.26915008 -0.423046 0.63866454 -0.17410499 -0.3419707 -0.22331117 -0.2521093 -0.12617375 0.23460914 0.41240478 0.033523723 -0.0071311616 -0.55087084 0.65142274 -0.22023867 0.42152512 0.3184494 -0.26439968 -0.09881189 -0.20026843 0.0551269 0.604285 -0.49000174 -0.278132 -0.2915131 -0.18950638 -0.1727243 0.10456826 0.37492588 0.31817713 0.08431396 0.29715255 0.114421956 0.40843633 0.0028867645 0.3726986 -0.13613047 0.21048196 0.1346727 0.16539317 0.3529704 0.06730177 -0.40191212 -0.10471794 -0.36164072 -0.32761663
1372 -0.18574905 -0.92990774 0.18305264 -1.094257 -1.5822998 -0.114238605 0.5225245 -0.4470007 -0.07576528 -0.08936933 -0.40777633 0.12308982 -0.24683584 -0.66372097 -1.1746525 -0.01835487 -0.6393167 -0.69214803 0.015356985 -1.85881 0.33318546 0.46701586 -0.2537489 -1.29058 0.65127134 -0.30951798 0.59272325 0.711831 1.0430509 2.1436388 -0.91520834 1.6499381 -1.5563889 -0.99823517 -0.4555585 0.6716244 0.64844567 0.29833555 0.6659457 -0.30009833 -1.7713932 0.033118483 -0.0015963922 0.18498193 0.26237106 0.55752885 -0.17752564 0.76055616 -0.43214116 -0.35176086 -0.7850394 -0.07231672 -0.66417307 0.7174153 -0.47246468 0.37976632 0.079630494 -0.95224625 -0.75374526 -0.01911746 -1.5394682 -0.36780852 -0.5474665 -1.1893239
2753 -0.6643855 -0.21862318 -0.5970305 -0.0098785255 -0.016731285 -0.23859736 -0.1529321 -0.12069293 0.113017194 -0.5872209 0.19537604 -0.03897037 0.3358121 0.43376386 -0.28724888 0.75487393 0.041068815 -0.12306348 0.2545638 -0.47186998 0.62642473 -0.17994146 -0.41091543 -0.26311353 -0.30854434 -0.07917072 0.2213745 0.42569372 -0.045439385 -0.030499024 -0.5748186 0.6694676 -0.19205014 0.44322166 0.3358026 -0.2720074 -0.13566692 -0.18502991 0.07018532 0.62943035 -0.5343509 -0.25218365 -0.25318193 -0.21226294 -0.16690303 0.17560987 0.42530695 0.27601728 0.004045714 0.31601116 0.20258035 0.41835707 -0.0321493 0.4430299 -0.15382011 0.20571949 0.1387623 0.22211447 0.41367027 0.085258596 -0.42013776 -0.054827854 -0.34979418 -0.3271866
2860 -0.6521609 -0.17658554 -0.582007 0.004022521 -0.0062111914 -0.27879256 -0.14063251 -0.15594953 0.10030297 -0.5804736 0.20686072 -0.044808842 0.3275219 0.4202535 -0.29898414 0.76744676 0.03043389 -0.12965879 0.22935918 -0.409036 0.62568206 -0.167943 -0.39585164 -0.23262973 -0.2754054 -0.066640906 0.20177163 0.41990507 -0.03489299 -0.022650555 -0.5483478 0.6668045 -0.2178937 0.4477716 0.31802464 -0.28581876 -0.116776586 -0.19370168 0.07302967 0.6167554 -0.5097429 -0.22819813 -0.26649845 -0.24074194 -0.18093911 0.16246799 0.43510407 0.27288058 0.029242132 0.29932523 0.21777941 0.42265764 0.004106345 0.4366516 -0.13752201 0.21843599 0.124619596 0.21906084 0.39552185 0.11417119 -0.39989516 -0.08997999 -0.355132 -0.32502404
2909 -0.6893357 -0.2103324 -0.618235 0.008979873 -0.022486463 -0.23710774 -0.12763083 -0.1717646 0.09264599 -0.6197967 0.2272361 -0.076863095 0.3267803 0.4287952 -0.32231218 0.7553703 0.03055724 -0.119352445 0.27032253 -0.44533107 0.6549163 -0.19928592 -0.37646225 -0.26196274 -0.30067354 -0.116359234 0.23373583 0.39522526 0.007962343 -0.018352045 -0.57028943 0.6914139 -0.23082812 0.45861298 0.36738265 -0.2646903 -0.109447554 -0.20704603 0.030463705 0.6580875 -0.51282346 -0.2827212 -0.2988562 -0.18731864 -0.18546873 0.15481228 0.398219 0.312322 0.06401115 0.3101564 0.16117394 0.4081856 -0.02951254 0.42187697 -0.13947998 0.21682386 0.14308374 0.19860248 0.42283824 0.10389671 -0.43901476 -0.098744884 -0.3684045 -0.34130555
3090 -0.66156685 -0.224562 -0.59312195 -0.043876942 -0.012432248 -0.24058016 -0.15818451 -0.14271408 0.1073532 -0.5881782 0.21412101 -0.043728445 0.32619977 0.41019958 -0.30221623 0.7794134 0.035241947 -0.12223904 0.25637814 -0.4725885 0.62747836 -0.1635837 -0.4014142 -0.25863972 -0.27972752 -0.08285658 0.21442485 0.41158813 -0.016492153 -0.013712206 -0.570837 0.65069705 -0.21322964 0.4505856 0.3296452 -0.26127708 -0.13090745 -0.1796717 0.046878688 0.62979543 -0.5299454 -0.25418192 -0.26466036 -0.2100112 -0.1802156 0.13736635 0.41375902 0.2997272 0.03412916 0.31769878 0.18632703 0.40962264 -0.03900574 0.41046143 -0.14606476 0.23824188 0.12851082 0.20610102 0.409328 0.1006662 -0.40628234 -0.08216625 -0.35964584 -0.33042252
2853 -0.56331563 -0.1728495 -0.48210815 -0.0352372 -0.034869116 -0.23916581 -0.11064475 -0.105509214 0.10631113 -0.4759578 0.14433894 -0.0019846489 0.25619644 0.3384302 -0.24457428 0.66219515 0.008749692 -0.12462757 0.2043338 -0.3814327 0.5161346 -0.12456382 -0.3473531 -0.21633732 -0.24485052 -0.055888403 0.16275814 0.39599916 -0.047478188 0.014045121 -0.47430792 0.6037953 -0.18554069 0.37370718 0.22285886 -0.2282327 -0.098800465 -0.13464502 0.095834255 0.5229739 -0.46891585 -0.1942822 -0.20601659 -0.21701969 -0.16822426 0.15988584 0.37924233 0.2518719 0.018140396 0.25208524 0.20122498 0.3511478 -0.009296121 0.415116 -0.13171461 0.20166704 0.0807234 0.17142934 0.31632367 0.10406545 -0.3583574 -0.08359722 -0.307282 -0.2831281
375 -0.63612044 -0.16953279 -0.5537228 0.0066934437 0.01674528 -0.24371684 -0.10526168 -0.13979855 0.09070465 -0.52836114 0.19789001 -0.04852415 0.28873572 0.40750065 -0.27550566 0.6982132 0.020201284 -0.09395896 0.22984087 -0.37755483 0.5851232 -0.16275302 -0.34223315 -0.22005284 -0.2631179 -0.111907735 0.21013261 0.40825224 -0.026706247 -0.027665345 -0.5299132 0.6278175 -0.17259052 0.43278697 0.29490942 -0.28566644 -0.11787925 -0.18506007 0.062313356 0.5795584 -0.4663541 -0.23682566 -0.25686175 -0.21900937 -0.16818461 0.12873413 0.40929687 0.2763239 0.03666181 0.30615634 0.14563106 0.4162687 0.022905014 0.40380773 -0.1288777 0.20623846 0.11524057 0.19269527 0.3388172 0.08255214 -0.37960258 -0.08021274 -0.34439966 -0.29312918
2060 -0.5607905 -0.18853934 -0.4825732 -0.027088478 -0.015396229 -0.244683 -0.15672384 -0.1537229 0.08497383 -0.51779795 0.16258402 -0.05479608 0.32792538 0.35180527 -0.26595798 0.6675338 0.00022077993 -0.12692769 0.20669271 -0.40304825 0.5717458 -0.12722565 -0.36643046 -0.2316558 -0.22539085 -0.062418815 0.17181547 0.36972222 -0.02588642 -0.008001963 -0.518665 0.60593903 -0.19440645 0.38681546 0.3004049 -0.24546123 -0.12648496 -0.1568146 0.09082916 0.5319647 -0.47291732 -0.2043514 -0.23543456 -0.20770259 -0.12990083 0.13534178 0.38353965 0.24365562 0.0036568895 0.24095269 0.15389276 0.40408474 0.0034956576 0.38194984 -0.14499773 0.18071783 0.12520178 0.16472298 0.3333443 0.07411131 -0.36884785 -0.07334801 -0.32673025 -0.3182877
1675 -0.6619134 -0.19652735 -0.60562277 0.0069613415 -0.019290268 -0.23596218 -0.16348363 -0.14565285 0.11738669 -0.59722674 0.19368663 -0.04255567 0.3322151 0.40589806 -0.29525232 0.74655515 0.024745844 -0.1142823 0.25897184 -0.4372697 0.62320036 -0.19359237 -0.38386384 -0.23296072 -0.30105355 -0.090761594 0.21707447 0.41532618 -0.026108116 -0.03004743 -0.54471844 0.65589046 -0.1954725 0.4514392 0.31427896 -0.26881287 -0.10983696 -0.19151703 0.069342405 0.62605625 -0.5082686 -0.27015206 -0.26252457 -0.21451546 -0.19441144 0.14201836 0.41008183 0.28881562 0.05187376 0.30967453 0.20407927 0.40568033 -0.031415403 0.4130946 -0.13482003 0.21328865 0.14133267 0.21857339 0.41701177 0.084500246 -0.4099628 -0.07806486 -0.34798723 -0.3152434
2297 -0.5866199 -0.17148848 -0.52495027 -0.011210287 -0.013743448 -0.24695261 -0.15236846 -0.15071847 0.08849011 -0.56005573 0.1633835 -0.06848186 0.32375798 0.35541266 -0.2921561 0.6993796 0.0055711907 -0.1029158 0.2116208 -0.3892832 0.575359 -0.15909666 -0.35569915 -0.2565418 -0.24969648 -0.06688528 0.20014115 0.38050535 -0.02905963 -0.017096465 -0.5307558 0.61295134 -0.19684061 0.40291333 0.31061307 -0.26425925 -0.11098228 -0.18387257 0.059851937 0.58234817 -0.47618374 -0.2323793 -0.27737153 -0.19871427 -0.14571342 0.122778766 0.3771331 0.27126935 0.032223362 0.25748998 0.13036115 0.3790157 -0.017460125 0.37578228 -0.1340086 0.20534919 0.13844696 0.19487794 0.3749232 0.07653594 -0.3911183 -0.089164 -0.34312335 -0.3116861
3071 -0.6602207 -0.19907165 -0.5977765 -0.023245014 0.0048249853 -0.2367716 -0.1356567 -0.11674292 0.106905706 -0.5818703 0.19589636 -0.040468432 0.31837615 0.4046581 -0.28610867 0.7501881 0.036521345 -0.11513185 0.24324298 -0.44118735 0.58848065 -0.17905918 -0.38531533 -0.2452858 -0.29510105 -0.08841111 0.20812304 0.39978477 -0.042417806 -0.029276978 -0.57019866 0.63552856 -0.18190384 0.45543528 0.31441048 -0.2804872 -0.13834977 -0.18587817 0.043745253 0.630096 -0.50586295 -0.2602092 -0.26608282 -0.22781779 -0.17845078 0.14145464 0.41118127 0.29804626 0.03750906 0.319558 0.17695904 0.39964074 -0.014905892 0.41633284 -0.14187615 0.23937099 0.13622144 0.21517932 0.39855215 0.087846056 -0.4123089 -0.09426529 -0.36307657 -0.29974827
2375 -0.646921 -0.18460509 -0.56413037 -0.039423745 -0.035336345 -0.23104286 -0.14859758 -0.17643422 0.111955546 -0.562777 0.18827215 -0.058789305 0.32223874 0.3697472 -0.31152734 0.7183097 -0.007834383 -0.12937571 0.2630249 -0.42915297 0.61829937 -0.17439495 -0.3733194 -0.2407292 -0.2563529 -0.10380704 0.21664631 0.3940782 0.019797971 0.008025398 -0.56248283 0.65336776 -0.2250827 0.42122686 0.3112085 -0.26574335 -0.12382349 -0.17071871 0.0780806 0.585955 -0.5154697 -0.2672678 -0.27175397 -0.17583466 -0.17032894 0.09832493 0.369334 0.32879004 0.052567046 0.27389583 0.14209779 0.40322858 -0.02425317 0.36372283 -0.14249563 0.22140063 0.12635946 0.1663571 0.37742305 0.081838466 -0.42854413 -0.08100575 -0.35476202 -0.3253444
126 -0.5422548 -0.13048811 -0.4746877 -0.027193915 -0.020911185 -0.24853842 -0.11173336 -0.12056001 0.11114167 -0.48993072 0.10504063 -0.016244266 0.25661957 0.29772356 -0.24229978 0.62974447 -0.026467208 -0.11014411 0.2090261 -0.3513448 0.51701903 -0.12645411 -0.35093194 -0.22789523 -0.2508355 -0.06788442 0.14030312 0.38173664 -0.047875967 0.016027793 -0.46893123 0.5915248 -0.17874686 0.3653736 0.22768629 -0.25317183 -0.093833014 -0.13581671 0.09501539 0.49684086 -0.46217552 -0.18536748 -0.23577987 -0.20569254 -0.15384912 0.13317232 0.38208035 0.24897452 0.022885844 0.23500557 0.17118965 0.3416417 -0.0071551176 0.3915274 -0.124549456 0.21371399 0.09161834 0.16080897 0.2905615 0.09335332 -0.36235714 -0.077963814 -0.30259818 -0.2827178
3585 -0.58123255 -0.1830182 -0.51471394 -0.025490873 -0.012880912 -0.23464629 -0.13680896 -0.16757429 0.10815757 -0.51628166 0.16345751 -0.024161702 0.2908293 0.35263693 -0.29404244 0.6868433 -0.012804359 -0.108253226 0.25155655 -0.3878805 0.57710314 -0.1358278 -0.35330844 -0.21777812 -0.23401698 -0.08515494 0.18398653 0.40661877 -0.015185522 -0.0028599969 -0.49288914 0.6126036 -0.19068508 0.38616472 0.2548476 -0.24919698 -0.10509191 -0.15691741 0.08798845 0.5313691 -0.47651482 -0.22802393 -0.25280052 -0.19537799 -0.17365734 0.10240556 0.3774871 0.28566584 0.06520548 0.27926862 0.14686564 0.37870815 -0.006576451 0.36543292 -0.13586703 0.19870523 0.11822682 0.18245292 0.31888482 0.06652931 -0.3680513 -0.06545867 -0.33386493 -0.31767067
2285 -0.09815428 0.5893724 0.31938878 0.09248118 -0.5763612 -0.55344963 0.27414042 -1.1766257 0.37735474 0.36453643 -0.9437898 0.42924422 -0.5542944 -0.7751343 -0.9283772 -0.14040838 -1.4364401 0.035920534 0.6759019 0.76179636 0.57142866 0.23925462 0.29614848 0.14789715 0.41740483 -0.32278782 -0.18928373 1.1782151 0.50135946 0.7665024 0.26996323 1.3450797 -0.3074823 -0.33264312 -1.3453506 -0.35012037 0.66810155 0.46836463 1.2507921 -0.58686274 -0.6374247 -0.16710736 -0.28625795 -0.1661605 -0.6473367 -0.2771553 0.5486632 1.0193615 0.8967341 -0.06446723 -0.2000725 0.019064175 0.55291635 0.5064448 -0.022545012 0.51665425 -0.16720773 -0.5568234 -1.4936286 -0.36993137 -0.42370126 -0.4280887 -0.25647777 -0.5328636
2621 -0.6628896 -0.20598204 -0.60561705 -0.013487296 -0.0190186 -0.22829852 -0.14383374 -0.16929746 0.094768085 -0.5899508 0.23528215 -0.067035556 0.32854936 0.40402383 -0.31575674 0.7420557 0.03867581 -0.11538899 0.2539312 -0.44122976 0.64278543 -0.20658581 -0.37118647 -0.25019696 -0.2783997 -0.1134331 0.24715978 0.39077604 0.018947199 -0.008144114 -0.5473378 0.6437587 -0.21937379 0.4397365 0.359849 -0.2594621 -0.1189104 -0.20073959 0.018163903 0.63390374 -0.50739443 -0.272341 -0.28534466 -0.1761157 -0.17194092 0.12507783 0.35991764 0.31420514 0.0516565 0.31130823 0.15361157 0.39776534 -0.03304283 0.38338104 -0.1297549 0.22006921 0.1456102 0.19140014 0.40981993 0.098986946 -0.4148457 -0.08446779 -0.35402945 -0.33038926
721 -0.62228256 -0.19610237 -0.5635041 0.008688112 -0.0018985069 -0.24765433 -0.1410999 -0.15853836 0.09859833 -0.5799393 0.21104057 -0.079793885 0.33140016 0.39963 -0.29481694 0.7180567 0.020445928 -0.11778239 0.23152348 -0.3966526 0.6200799 -0.1808891 -0.36995924 -0.2550715 -0.2716392 -0.09708368 0.22594944 0.37048444 -0.008394897 -0.031815823 -0.5402163 0.6325067 -0.21420284 0.41992086 0.36210877 -0.25884953 -0.1283339 -0.18781415 0.050152887 0.61247534 -0.4800231 -0.23455277 -0.28294554 -0.19075797 -0.1481594 0.14911655 0.38857013 0.26910496 0.03316491 0.28212395 0.15262325 0.39594465 -0.030451769 0.39548674 -0.13989194 0.19815917 0.13898255 0.20181143 0.41377214 0.10118031 -0.39877528 -0.09266562 -0.3530123 -0.32916394
3267 -0.58179504 -0.14261885 -0.51582426 0.013671093 -0.0132332025 -0.23203923 -0.1299036 -0.10856994 0.10950126 -0.52123505 0.12577666 -0.032004956 0.2785522 0.34247026 -0.24957062 0.6461989 0.0008148866 -0.10971787 0.22259416 -0.37915 0.5421039 -0.15581404 -0.36542955 -0.2342261 -0.27072024 -0.08170769 0.17490698 0.36834928 -0.035561036 -0.011854734 -0.4953769 0.603206 -0.17460482 0.38270465 0.2741152 -0.24414301 -0.098527744 -0.14576638 0.09164851 0.53926677 -0.45466727 -0.22334601 -0.23956552 -0.19533774 -0.14883848 0.16098869 0.38764274 0.24134289 0.003475453 0.24505407 0.17040424 0.3669502 -0.0048562894 0.39935938 -0.13813362 0.19915475 0.106291294 0.18277419 0.3515246 0.082996055 -0.38545334 -0.06852662 -0.31223595 -0.27946237
2040 -0.6557242 -0.18666928 -0.6000386 0.00505989 -0.030152598 -0.24155024 -0.16882275 -0.15590313 0.113654085 -0.6081687 0.19917883 -0.051214725 0.33973575 0.39758727 -0.3066723 0.7696113 0.036492415 -0.117518604 0.25244746 -0.4160233 0.62755096 -0.18447624 -0.4014428 -0.25398618 -0.28687245 -0.065541945 0.21137191 0.40101162 -0.025055643 -0.0375867 -0.5334852 0.66212815 -0.22592294 0.45331645 0.3543813 -0.2808292 -0.117724866 -0.19342054 0.045476798 0.6498905 -0.50801516 -0.24033104 -0.2877695 -0.20847122 -0.18752842 0.13793689 0.3896438 0.2852701 0.046051472 0.30329248 0.2050479 0.39396885 -0.03674237 0.4237543 -0.13624904 0.22632194 0.14899407 0.2280752 0.43483055 0.10833815 -0.4163425 -0.08103835 -0.35756633 -0.3467553
84 -0.6093206 -0.20164435 -0.56288356 -0.032932624 -0.02374828 -0.23459677 -0.14398554 -0.15580784 0.09151957 -0.548272 0.18610829 -0.057140104 0.324676 0.38502693 -0.28990978 0.72048604 0.0059134313 -0.11128331 0.22141314 -0.42517284 0.5912253 -0.16114046 -0.37217826 -0.25851846 -0.26400748 -0.07996378 0.21925361 0.39508528 -0.027630134 0.0011317848 -0.54718685 0.6250272 -0.20606765 0.41206494 0.31476754 -0.26014096 -0.10293863 -0.17847584 0.06706716 0.5906111 -0.50942683 -0.23924565 -0.27081722 -0.19026299 -0.1648239 0.12650068 0.38293365 0.28240037 0.024405148 0.2925336 0.12483603 0.40628287 -0.02673348 0.40249017 -0.1412688 0.20542094 0.1495401 0.19217305 0.35672355 0.06251221 -0.4018773 -0.07348573 -0.36147746 -0.32100928
2446 -0.6560221 -0.19473855 -0.584249 -0.02968838 -0.0023091931 -0.24022871 -0.114068605 -0.15347168 0.08881437 -0.52869165 0.23727635 -0.04829057 0.29209396 0.4006322 -0.30744678 0.7320716 0.03973058 -0.12548424 0.23488869 -0.4469782 0.5990391 -0.17141427 -0.35682312 -0.19666775 -0.2655133 -0.115774 0.21455413 0.3835378 0.0011736655 0.014283272 -0.54231787 0.63867277 -0.20862946 0.4511208 0.31004575 -0.26353267 -0.10922564 -0.18594961 0.013355703 0.5995576 -0.4821223 -0.25399107 -0.26799095 -0.2075106 -0.17965259 0.13180378 0.37044752 0.3078153 0.0334068 0.31577358 0.16797137 0.38554493 -0.009098009 0.37998155 -0.13156591 0.22301404 0.11576128 0.1724585 0.380881 0.11706262 -0.39976928 -0.08676231 -0.34346637 -0.28985435
4109 -0.59868824 -0.19287995 -0.5462355 -0.02692779 -0.02078295 -0.21952382 -0.13257538 -0.11363303 0.103632554 -0.53669226 0.15997502 -0.021408256 0.29073778 0.36899358 -0.2711283 0.70165694 0.032132737 -0.11874575 0.23141603 -0.41831204 0.55578667 -0.1591834 -0.3691777 -0.23771995 -0.2769635 -0.07358119 0.18406144 0.3951838 -0.04664032 -0.01310401 -0.5053536 0.6252451 -0.19821088 0.40775123 0.26602095 -0.25190482 -0.1015586 -0.17587008 0.06359025 0.5750633 -0.49601462 -0.22179413 -0.2413829 -0.21738751 -0.18270095 0.15371148 0.38723925 0.25693154 0.026921585 0.28959975 0.18465589 0.37997988 -0.023235422 0.4267736 -0.14149946 0.2083865 0.1241517 0.2124761 0.36852363 0.10538615 -0.39847356 -0.075970605 -0.32903507 -0.296492
3401 -0.63658154 -0.1967924 -0.5516983 -0.04115491 -0.034459524 -0.21777232 -0.122899264 -0.14216001 0.11351476 -0.56777865 0.20130078 -0.061462875 0.3012504 0.36690074 -0.3056793 0.7169881 0.039218348 -0.13898885 0.24096893 -0.4592611 0.5984715 -0.17862882 -0.37141964 -0.23744561 -0.25277373 -0.10244929 0.21202219 0.36551532 0.02278075 0.008778149 -0.55637604 0.6296629 -0.23038198 0.4142819 0.31841552 -0.23326078 -0.11902213 -0.17309819 0.038178682 0.5995464 -0.5055161 -0.25693575 -0.26282215 -0.17965648 -0.16205025 0.12786433 0.34594154 0.30256006 0.04098972 0.2793769 0.15721872 0.36661032 -0.052994546 0.36999774 -0.1392683 0.22125344 0.121766016 0.1626737 0.4025473 0.12439816 -0.41889194 -0.083925545 -0.34274194 -0.31711805
3270 -0.12686321 0.5399597 0.2966023 0.07485911 -0.5543081 -0.5632995 0.27265242 -1.1721078 0.3384716 0.33976138 -0.8750564 0.40362266 -0.5161795 -0.7116634 -0.9262445 -0.11588256 -1.3931347 0.027238997 0.6566249 0.71626467 0.6057607 0.24996945 0.27384782 0.12507305 0.41076863 -0.3123506 -0.14926817 1.1681209 0.5022433 0.7424336 0.22850822 1.3320715 -0.3198428 -0.30467105 -1.2715493 -0.35559028 0.63706565 0.44692636 1.2230628 -0.54370415 -0.6478981 -0.15857454 -0.2886389 -0.17011406 -0.61878073 -0.26369396 0.5602253 1.0016338 0.8502934 -0.047920905 -0.19507262 0.06890014 0.5539492 0.5310535 -0.033345558 0.49079725 -0.1473067 -0.53483003 -1.4431041 -0.36043563 -0.4266052 -0.40186977 -0.27856246 -0.5470705
1792 -0.64666766 -0.19703968 -0.5608502 -0.022269253 -0.015483101 -0.23380543 -0.13033336 -0.14336434 0.09815786 -0.5737776 0.21420293 -0.043381084 0.31958058 0.4083758 -0.28775445 0.743797 0.043120228 -0.124743216 0.23130226 -0.41984504 0.60038924 -0.16273358 -0.37639695 -0.24767351 -0.27129543 -0.07100461 0.20894611 0.39037555 -0.0125245685 -0.015009166 -0.53567547 0.6431178 -0.21906258 0.43891126 0.33363977 -0.24999814 -0.12841989 -0.18531938 0.032011494 0.63170844 -0.505309 -0.2227477 -0.25282326 -0.20469606 -0.1652809 0.13748492 0.3808179 0.2742794 0.029523747 0.31518763 0.19010362 0.39498204 -0.02206229 0.42661953 -0.12925865 0.23436756 0.12712623 0.21136665 0.3987381 0.12731136 -0.38757154 -0.092518836 -0.35232183 -0.3283679
2036 -0.64713323 -0.21278615 -0.5946593 -0.0064327703 -0.008864985 -0.2409968 -0.15718593 -0.14699548 0.11353291 -0.5810516 0.20045468 -0.04046266 0.3449591 0.41134512 -0.2880164 0.7567065 0.036902197 -0.107727885 0.2518717 -0.4198176 0.6099092 -0.15911983 -0.38864547 -0.25589526 -0.27854842 -0.07308742 0.21230252 0.41509923 -0.042428765 -0.05539619 -0.53053993 0.649489 -0.19571418 0.443107 0.3328955 -0.26480305 -0.12543908 -0.19033301 0.04777272 0.6321161 -0.5166366 -0.2376441 -0.2633697 -0.2069748 -0.18433309 0.13409078 0.4155328 0.28969803 0.042369984 0.3158289 0.18272737 0.39833888 -0.025828252 0.4242083 -0.13078712 0.21280569 0.1487593 0.2435211 0.40191963 0.08980732 -0.37962747 -0.08096796 -0.34917775 -0.33818215
1680 -0.5283899 -0.17472194 -0.49044806 -0.011555604 -0.06245847 -0.2401129 -0.1101379 -0.13601156 0.087893836 -0.473685 0.14112574 -0.0118602095 0.25801945 0.3512711 -0.26180473 0.6286669 -0.002998943 -0.12962247 0.20852566 -0.37304866 0.5155793 -0.11781168 -0.33516803 -0.21756858 -0.23430608 -0.054031488 0.16372764 0.39545438 -0.03126463 0.024130646 -0.43615985 0.6075714 -0.19715415 0.3411523 0.22936556 -0.21649477 -0.068095535 -0.16591221 0.08993272 0.49055567 -0.46520343 -0.16749874 -0.21142507 -0.20842327 -0.16514948 0.16601871 0.3672431 0.2471004 0.022667002 0.25114357 0.18035124 0.33791253 -0.0131888585 0.4131112 -0.11842141 0.19837627 0.10927219 0.18326765 0.29996946 0.08435621 -0.36159405 -0.06658879 -0.31430387 -0.3112116
1783 0.2892516 -0.8352023 -0.5012479 -0.45262727 -0.7098008 -1.1599873 -0.7660184 -0.7482861 -0.74262553 1.0073869 -0.3457702 0.36318913 0.6087421 1.034759 -0.5018839 0.010106407 -1.0065846 -0.97791064 -0.23265325 -0.7773541 0.3847427 0.73726314 -0.5044087 0.04857746 0.0028515584 0.47282046 -0.19602773 1.8481469 -0.71009666 0.99955404 -0.5835342 1.0357192 0.12432125 -0.60017604 -0.930071 -0.585095 0.3931225 -0.64404726 1.3830059 -1.2500821 -0.77590454 0.42224634 -0.14002424 -1.0956124 -0.32245535 0.39317068 0.7470306 -0.1877193 -0.6446761 0.111586384 -0.015439427 1.0552391 1.0064927 0.9344894 -0.14345366 -0.9481898 0.5137711 0.28443727 -1.2260319 -1.1606382 -0.62546206 0.57371986 -0.5279044 -0.593659
1232 -0.5693651 -0.1834388 -0.5139395 -0.03907379 -0.034565955 -0.22723626 -0.14583091 -0.12468169 0.10681636 -0.5126937 0.13386434 -0.022517636 0.29333568 0.35162404 -0.26946634 0.67340845 -0.0013004282 -0.13345471 0.22200023 -0.40101454 0.5437898 -0.14384302 -0.37621292 -0.23383884 -0.2582823 -0.060556505 0.16311735 0.40324882 -0.044499077 0.0011325335 -0.50374776 0.6027882 -0.19228476 0.37670505 0.25605747 -0.2418454 -0.09213627 -0.16648822 0.09856389 0.5273701 -0.49349445 -0.21075113 -0.2370413 -0.22004543 -0.16633865 0.14169303 0.38257864 0.26273185 0.018172316 0.25439718 0.17922047 0.37418774 -0.0045634606 0.39796823 -0.14254637 0.20422465 0.1294482 0.18881987 0.3382348 0.07028584 -0.39184085 -0.07454737 -0.3287157 -0.300029
3714 -0.6726972 -0.20312685 -0.5647777 -0.026112812 -0.010246251 -0.23257636 -0.10211205 -0.1917418 0.104504846 -0.5389398 0.22869235 -0.053917002 0.28230438 0.3860165 -0.33040017 0.7335632 0.0041351356 -0.11294824 0.27503705 -0.43282476 0.6335741 -0.17782383 -0.34000614 -0.22564991 -0.25329927 -0.14496712 0.24443334 0.41982794 0.03645983 0.021169212 -0.5512706 0.66498256 -0.21693991 0.43822742 0.3026972 -0.26103342 -0.1123818 -0.17323586 0.052882727 0.6055741 -0.50672096 -0.27977058 -0.27416712 -0.1917423 -0.17388195 0.11607885 0.37568158 0.33809027 0.075166695 0.30951974 0.1422611 0.40750247 -0.01228975 0.39288083 -0.14743039 0.22861874 0.114014715 0.14027666 0.34623712 0.082164 -0.40894982 -0.10774679 -0.35352957 -0.32092467
2157 -0.66806215 -0.23752025 -0.5750751 -0.0462296 -0.018120864 -0.21767813 -0.13986881 -0.16168992 0.103755176 -0.56294745 0.23264407 -0.07371218 0.3297188 0.40213054 -0.31231079 0.7334635 0.037922863 -0.137774 0.23881435 -0.48419443 0.63703436 -0.1734639 -0.38682017 -0.23648053 -0.26562992 -0.123133205 0.24584343 0.3872299 0.01070502 0.005665216 -0.5999076 0.63792855 -0.22908223 0.42913464 0.3594539 -0.24253348 -0.13004324 -0.17122541 0.03154984 0.6007726 -0.5182311 -0.26773283 -0.26176572 -0.1887556 -0.13432212 0.13314012 0.36354402 0.29352668 0.025918266 0.30116153 0.14431721 0.41345674 -0.030488716 0.36578214 -0.15618517 0.19654107 0.119625576 0.14590268 0.4021237 0.09225425 -0.41603938 -0.07548924 -0.35006037 -0.31760257
365 -0.6598256 -0.21588348 -0.5893848 -0.007691697 -0.020304559 -0.22548872 -0.14047718 -0.18503113 0.10117842 -0.56173843 0.2101977 -0.053459663 0.3170776 0.41305828 -0.31089255 0.74846876 0.0164917 -0.11235703 0.2722374 -0.43261793 0.6297724 -0.18422997 -0.3608261 -0.22824056 -0.27821818 -0.108377755 0.22739181 0.41796407 0.008763026 -0.023432795 -0.5473113 0.65402436 -0.19078946 0.4320098 0.3221352 -0.2553941 -0.10716129 -0.18043591 0.060730312 0.61657876 -0.5113902 -0.2773669 -0.2654129 -0.18495277 -0.19424473 0.1251559 0.38767603 0.30717295 0.0806143 0.31555304 0.16100585 0.40215495 -0.012704372 0.39041844 -0.14046064 0.19752635 0.13244918 0.18664134 0.3807096 0.081508264 -0.39417067 -0.081725694 -0.35696375 -0.3265969
609 -0.52863234 -0.1459639 -0.5524675 0.017188005 -0.06261363 -0.20799129 -0.16328032 -0.11926788 0.08772982 -0.5416825 0.11409069 -0.048340507 0.30037796 0.34501895 -0.27006108 0.64108604 -0.021475643 -0.11104747 0.21766476 -0.36765316 0.52183783 -0.17289762 -0.36232308 -0.2400288 -0.30093038 -0.055347618 0.17687778 0.36769474 -0.04810246 -0.004390778 -0.4614278 0.6038078 -0.17870799 0.37320387 0.26311967 -0.27491373 -0.061156 -0.20327275 0.08559006 0.5285876 -0.46856946 -0.2258238 -0.26217163 -0.19987153 -0.18612948 0.15636006 0.35823977 0.2653596 0.036731053 0.23315614 0.15210047 0.3323243 -0.020929385 0.3843509 -0.11337184 0.17956387 0.16066612 0.20427184 0.35397217 0.052459188 -0.4059612 -0.07707098 -0.30668372 -0.28936842
2937 -0.64226544 -0.23822182 -0.5901498 -0.038227055 -0.04244572 -0.20477319 -0.13750106 -0.17629342 0.077867694 -0.5484715 0.23281059 -0.066130504 0.29963163 0.40413368 -0.33746445 0.7270201 0.029478807 -0.13455103 0.2514411 -0.45756966 0.6166397 -0.18834926 -0.34736592 -0.22477788 -0.2448209 -0.10563576 0.24587367 0.39600575 0.04159863 0.019189317 -0.535957 0.6403744 -0.21934658 0.40293017 0.32470104 -0.22151847 -0.101165585 -0.20514923 0.032452807 0.6008613 -0.49479935 -0.266073 -0.28333873 -0.1698128 -0.18974614 0.10908397 0.33233175 0.32272387 0.06038727 0.31272143 0.12661812 0.37826008 -0.031869683 0.35658973 -0.12476645 0.18901615 0.13047355 0.174879 0.3822817 0.0824717 -0.4148806 -0.08683048 -0.3357573 -0.32628652
3044 -0.6215841 -0.17999694 -0.56131035 -0.013904827 -0.022375938 -0.21429399 -0.1348413 -0.15354925 0.10539787 -0.5599184 0.19536479 -0.051645394 0.29838273 0.36876974 -0.29958603 0.71074355 0.009550874 -0.11173234 0.25023443 -0.40940183 0.5908032 -0.17935227 -0.3564272 -0.23475654 -0.26943007 -0.099272065 0.20827271 0.3875605 0.0014484903 -0.01136374 -0.5094303 0.6335664 -0.20699058 0.4109406 0.2941999 -0.25809363 -0.10310534 -0.17639972 0.04453067 0.5874496 -0.48128137 -0.24145667 -0.2627235 -0.1825391 -0.17411159 0.1239308 0.36156404 0.30951682 0.061884597 0.2942565 0.14776179 0.37275362 -0.029829519 0.38370764 -0.119840324 0.22604133 0.12215338 0.19270219 0.36640695 0.079957254 -0.38950935 -0.09541741 -0.3391328 -0.31969818
1346 -0.53034186 -0.14580488 -0.47104737 -0.036571957 -0.03006012 -0.2386164 -0.11940035 -0.092420965 0.1058631 -0.49338946 0.11862123 -0.008287838 0.27039483 0.3099741 -0.22302811 0.65115356 0.004644185 -0.120305985 0.18799682 -0.38113365 0.47977832 -0.1176337 -0.35859406 -0.23617153 -0.2568243 -0.041510403 0.14948457 0.34330675 -0.06418762 -0.006047194 -0.4638143 0.56648976 -0.19087127 0.3735153 0.24556014 -0.24066001 -0.09812931 -0.14106172 0.06898276 0.50307745 -0.45321274 -0.17213291 -0.20874983 -0.20488024 -0.14614186 0.15826944 0.37748566 0.23818304 -0.015929343 0.23198254 0.18146057 0.3351397 -0.025491975 0.39379504 -0.1268384 0.21477605 0.110248946 0.19740185 0.34056425 0.0960345 -0.36696234 -0.066098176 -0.3068903 -0.27740693
281 -0.6069824 -0.19695494 -0.51016015 -0.04588299 -0.031946532 -0.2081241 -0.11324102 -0.16874188 0.09883641 -0.5123121 0.1870986 -0.044169433 0.27053517 0.34014738 -0.31043985 0.66426307 -0.014596052 -0.10576302 0.24138662 -0.4296058 0.5715044 -0.14562114 -0.32911417 -0.23408161 -0.20922968 -0.10556702 0.2173016 0.38523194 0.03460751 0.033269346 -0.5370987 0.6293895 -0.22358947 0.37190074 0.26850906 -0.23415072 -0.10928647 -0.15109031 0.06572685 0.54719806 -0.5021976 -0.24206604 -0.25475726 -0.17430745 -0.16040163 0.09421342 0.34597063 0.30781776 0.05845575 0.2761679 0.10557941 0.37114006 -0.024264904 0.35029617 -0.1436625 0.21426223 0.107512966 0.13601148 0.3048206 0.073734485 -0.40185213 -0.09075582 -0.33993554 -0.31513476
119 -0.60642105 -0.20524247 -0.51501894 -0.037644695 -0.02668773 -0.19957128 -0.12723872 -0.14358605 0.11682609 -0.5340774 0.16684406 -0.026260054 0.2911757 0.3380138 -0.28452688 0.6880102 0.00702674 -0.11506819 0.25252607 -0.42807147 0.5564519 -0.13587601 -0.35736182 -0.24205568 -0.23550433 -0.08092978 0.20417088 0.3978009 0.0010258912 0.0060263444 -0.5090774 0.62239975 -0.20091504 0.37752774 0.27222613 -0.22294891 -0.11389522 -0.14703196 0.06614784 0.5619072 -0.49981567 -0.23066565 -0.21947752 -0.177075 -0.16769597 0.11532739 0.3662853 0.28499618 0.043364406 0.2820929 0.17079976 0.3687673 -0.03529948 0.38612866 -0.14487916 0.21081445 0.11730835 0.18051858 0.34158042 0.08439737 -0.37932795 -0.06568307 -0.3313291 -0.33104503
694 -0.6144852 -0.19431987 -0.55453265 -0.037105013 -0.022768201 -0.2226168 -0.12979057 -0.1247652 0.09818406 -0.55895394 0.18604925 -0.05269126 0.31021073 0.35931075 -0.28904337 0.70576394 0.01331239 -0.11963664 0.23074426 -0.44281158 0.56385994 -0.16772984 -0.3725979 -0.26432553 -0.26633766 -0.084571466 0.20855646 0.37090212 -0.01731473 0.015177984 -0.5479202 0.62319887 -0.21272199 0.4148409 0.3133737 -0.25882477 -0.11020266 -0.17363565 0.049666222 0.5820293 -0.5176415 -0.24897853 -0.27283704 -0.19715287 -0.16258648 0.12586223 0.36609277 0.30399472 0.017618742 0.27886716 0.14413589 0.37995493 -0.041393414 0.3837546 -0.14385888 0.22941017 0.12612307 0.17837664 0.37950838 0.096528396 -0.40838367 -0.09288033 -0.33709967 -0.3107734
1158 -0.10366659 0.5237516 0.27986315 0.10279082 -0.47839484 -0.5219695 0.24056806 -1.0548207 0.328912 0.3064207 -0.81180954 0.36229578 -0.46193805 -0.66633594 -0.8080744 -0.09653718 -1.2506837 0.035381272 0.588723 0.6991351 0.53985393 0.218588 0.25098693 0.13263747 0.37257987 -0.27054477 -0.16766228 1.0370607 0.43397266 0.6275989 0.23431288 1.1800451 -0.27828422 -0.27509177 -1.1460086 -0.32765818 0.5734712 0.42582542 1.0971888 -0.47691998 -0.5609735 -0.12541169 -0.25314784 -0.15648143 -0.5694709 -0.24633397 0.5279482 0.88815314 0.7877534 -0.043816008 -0.14624637 0.050534543 0.5024257 0.45922288 -0.022713553 0.46204332 -0.15498537 -0.46541694 -1.2801062 -0.30110928 -0.3478243 -0.3732466 -0.23149893 -0.49539632
74 -0.65481275 -0.1993826 -0.5818311 -0.0148362825 -0.01640545 -0.22631083 -0.13583846 -0.20297495 0.103595346 -0.5595527 0.2216347 -0.07494235 0.31662762 0.40019548 -0.34425572 0.7170836 0.0062241047 -0.12898012 0.27014497 -0.42698723 0.6445951 -0.18826997 -0.34313273 -0.21985039 -0.24909209 -0.13138363 0.24286358 0.39431018 0.047682755 -0.0033833466 -0.54704046 0.6639645 -0.22020754 0.4295177 0.32226396 -0.24819195 -0.11524299 -0.19163376 0.049530283 0.6053927 -0.49942946 -0.29000783 -0.29576516 -0.1812879 -0.17566672 0.116293885 0.35653877 0.3326806 0.07436037 0.28815114 0.13514727 0.38619 -0.0279993 0.37161 -0.12948011 0.21040244 0.13432874 0.17000405 0.38405034 0.08567837 -0.4140592 -0.09175875 -0.34419525 -0.33057332
970 -0.6312735 -0.19442134 -0.55073744 -0.014334012 -0.014134504 -0.24323066 -0.15039045 -0.16123097 0.11003392 -0.57595074 0.19374491 -0.051214825 0.3213213 0.3848718 -0.29019487 0.7101809 0.011596709 -0.10874548 0.2433326 -0.41607037 0.60976106 -0.15454783 -0.36892554 -0.25413087 -0.2645713 -0.08057435 0.21781771 0.3854167 -0.009610927 -0.031843174 -0.5330239 0.6283216 -0.21554479 0.41420758 0.32471156 -0.27221653 -0.11512233 -0.18408203 0.050329946 0.6003097 -0.5017932 -0.24761273 -0.25972763 -0.18983142 -0.16728586 0.11849001 0.3925219 0.29369858 0.04202604 0.28398284 0.15077643 0.40010116 -0.02942517 0.38868523 -0.14624849 0.21953331 0.1339209 0.19630823 0.37931708 0.084817946 -0.39428008 -0.089314155 -0.35437685 -0.33160722
894 -0.59067863 -0.15254375 -0.5163602 -0.00016722573 -0.026168924 -0.2160428 -0.098253466 -0.16311151 0.10978332 -0.5031954 0.14277613 -0.038846735 0.25174406 0.34337258 -0.2874068 0.63633764 -0.02071145 -0.09863609 0.23999855 -0.360064 0.56507397 -0.14731856 -0.30060998 -0.21239822 -0.24025422 -0.1025671 0.20349766 0.38243997 0.004782134 -0.0018058559 -0.48285574 0.62128884 -0.18563505 0.3815318 0.25076234 -0.24125165 -0.08128839 -0.15797588 0.066988915 0.5369901 -0.4635779 -0.22947773 -0.24590725 -0.18942347 -0.1714096 0.1343995 0.36189115 0.2885068 0.06296352 0.26952016 0.12065584 0.36222735 -0.010825427 0.39675552 -0.12392896 0.20635612 0.11430716 0.15960474 0.29899508 0.0681313 -0.38338158 -0.090868436 -0.31697586 -0.2929465
1869 -0.08326153 0.54623413 0.3272335 0.08655802 -0.50887 -0.5355802 0.26162937 -1.0919937 0.34353948 0.32300025 -0.88139457 0.38593173 -0.49711293 -0.70780337 -0.8603343 -0.13274896 -1.3329856 0.060942434 0.59599674 0.726626 0.54828346 0.23912647 0.26927772 0.10034089 0.3930942 -0.28944796 -0.16231458 1.0871327 0.46419382 0.68689936 0.23573448 1.2422715 -0.29937914 -0.3159162 -1.2200184 -0.33240288 0.61144346 0.44576052 1.1716089 -0.5352323 -0.59976 -0.13231705 -0.27031636 -0.15879554 -0.5736368 -0.2511072 0.52399826 0.9453541 0.820762 -0.06618381 -0.20077737 0.03859087 0.5182852 0.48961926 -0.02332832 0.47710475 -0.15114266 -0.5053696 -1.3845598 -0.33918685 -0.38801467 -0.39837778 -0.25290662 -0.50647104
463 -0.081464365 0.5198619 0.28325042 0.098241664 -0.45768324 -0.4726711 0.25980878 -1.000543 0.31394246 0.31627443 -0.7834959 0.34109047 -0.47592866 -0.65145284 -0.7731001 -0.14491129 -1.20889 0.04852502 0.56855816 0.67340463 0.4920334 0.20709422 0.26071894 0.14040397 0.3650667 -0.29660824 -0.15404728 0.9778401 0.43157256 0.6177029 0.23360461 1.1097414 -0.24614663 -0.26877967 -1.1204123 -0.29333186 0.5620795 0.40771872 1.0564188 -0.48066247 -0.5159745 -0.14102118 -0.23522139 -0.1274827 -0.5312911 -0.2418598 0.46656287 0.851643 0.76534414 -0.061180867 -0.18371329 0.02835828 0.48245963 0.42230946 -0.012260277 0.42433026 -0.15729605 -0.47231612 -1.2656307 -0.30896387 -0.34224227 -0.36210158 -0.21656965 -0.44716772
3211 -0.6071129 -0.18964593 -0.55125165 0.003938235 -0.025424223 -0.227551 -0.13912109 -0.15237407 0.10058505 -0.57436097 0.17262004 -0.05929103 0.31573766 0.36412728 -0.28883317 0.70540416 0.0068704435 -0.12257795 0.2332185 -0.4136143 0.58913606 -0.17198321 -0.36137122 -0.25263956 -0.27753982 -0.077775486 0.20060283 0.37116632 -0.016693396 -0.007520322 -0.5370884 0.6318526 -0.21568023 0.40229508 0.31576058 -0.253984 -0.09452981 -0.18860902 0.04772838 0.58888495 -0.49365458 -0.24398485 -0.26993558 -0.19842401 -0.15659267 0.14244542 0.37404343 0.27423778 0.03214806 0.25991252 0.15938824 0.37579903 -0.02226235 0.39579013 -0.12960057 0.21226306 0.1354403 0.19304292 0.37865844 0.09088775 -0.4144958 -0.08036807 -0.335363 -0.3268768
2581 -0.6609348 -0.22634181 -0.58708364 -0.024420282 -0.014812099 -0.22054183 -0.13670582 -0.18201905 0.098047264 -0.5932854 0.2253054 -0.078641124 0.32604995 0.39548302 -0.32413536 0.73187023 0.027675964 -0.12018075 0.24861036 -0.4593309 0.63659316 -0.1927519 -0.35613552 -0.25219518 -0.2633994 -0.12757848 0.2587661 0.38261712 0.031702314 -0.00032507296 -0.57925653 0.6464446 -0.22458044 0.4251005 0.3644998 -0.24223444 -0.12243445 -0.19367552 0.030038973 0.6289972 -0.5099657 -0.28653464 -0.28488436 -0.17371146 -0.16314442 0.11571553 0.35594723 0.32218093 0.06429632 0.2958888 0.119379014 0.40184587 -0.039212156 0.3780167 -0.14691174 0.20912774 0.13903928 0.16718103 0.39946494 0.08895334 -0.4275897 -0.089754924 -0.36225623 -0.33289722
1512 -0.6054967 -0.18915497 -0.5413226 -0.010680423 -0.037834343 -0.2338126 -0.093594246 -0.13643405 0.1014239 -0.52083796 0.18341812 -0.03233824 0.2760246 0.38141418 -0.29573047 0.6857078 0.023270588 -0.11465231 0.22667776 -0.40821296 0.5667379 -0.14349642 -0.34047198 -0.24709475 -0.25319505 -0.10069314 0.21242045 0.40035295 0.0024005822 0.018014831 -0.51152164 0.63871664 -0.2087242 0.39692193 0.27329886 -0.23680605 -0.08734612 -0.16215193 0.049203824 0.57111186 -0.49686855 -0.21353845 -0.24362539 -0.19339019 -0.16203883 0.15067932 0.3816483 0.27467805 0.024517918 0.27989358 0.15659963 0.376794 -0.01752694 0.4300273 -0.13797538 0.20494656 0.10602514 0.18541059 0.34463656 0.110643364 -0.39415997 -0.08267113 -0.3393295 -0.32439595
1943 -0.5709791 -0.16321613 -0.4953502 -0.019797042 -0.016538005 -0.21981831 -0.11765381 -0.12663667 0.11449266 -0.52315867 0.17171732 -0.019977907 0.2806557 0.3378633 -0.25703588 0.6695155 0.016510004 -0.099615045 0.21181655 -0.3630954 0.53616494 -0.13758922 -0.32875815 -0.23324151 -0.24661708 -0.06319539 0.17764586 0.36820397 -0.0195429 -0.016844433 -0.46483922 0.5901585 -0.18558308 0.3933366 0.26835936 -0.24104826 -0.100104064 -0.15687265 0.050194398 0.54795116 -0.45241678 -0.19928043 -0.23697105 -0.18590279 -0.16832359 0.11525789 0.36345446 0.2746277 0.042429633 0.27780378 0.17494687 0.34857446 -0.027770445 0.37903622 -0.12068982 0.228143 0.10810119 0.19666167 0.35669416 0.109831445 -0.36015248 -0.076887965 -0.32089257 -0.28601745
2736 -0.60138005 -0.17008765 -0.51758313 -0.034685623 -0.047250148 -0.21746032 -0.10388389 -0.17658187 0.09992638 -0.53407615 0.16883494 -0.065816395 0.27268168 0.32030517 -0.32671216 0.6571492 0.00089794485 -0.12553488 0.23749113 -0.42293575 0.5787705 -0.17674565 -0.34029463 -0.22748415 -0.24219407 -0.12622635 0.21993798 0.35608512 0.040621098 0.042900406 -0.52167654 0.6208947 -0.22899245 0.37591058 0.2859923 -0.2423029 -0.09047406 -0.16222307 0.055601478 0.55283856 -0.4857321 -0.26397413 -0.2658401 -0.16694024 -0.15377875 0.107152335 0.3383144 0.30823895 0.04738349 0.2453682 0.10460901 0.3488785 -0.029518181 0.3512056 -0.13351816 0.22201361 0.120291874 0.12529199 0.33025062 0.09066942 -0.4230737 -0.110932216 -0.33007807 -0.3109607
1483 -0.5993765 -0.16274703 -0.5183682 0.011575727 -0.011091257 -0.21141815 -0.11755896 -0.17425342 0.0920969 -0.5094044 0.18993767 -0.06874188 0.28277925 0.36552185 -0.28812522 0.6440564 0.0036454678 -0.120128974 0.230391 -0.372749 0.57637024 -0.16916198 -0.32346055 -0.1840478 -0.24720639 -0.10969792 0.20789512 0.3751111 0.010588756 -0.0067974385 -0.50597787 0.5963188 -0.18960252 0.3888531 0.28286663 -0.24125566 -0.08868962 -0.17382692 0.059746508 0.54011846 -0.43374443 -0.25080276 -0.26678422 -0.18783614 -0.15619329 0.11639003 0.35299215 0.2700485 0.05522044 0.25028065 0.13545398 0.37339807 -0.00023288206 0.34708932 -0.12703614 0.17625844 0.12075465 0.15363652 0.33445206 0.061050214 -0.3890542 -0.08025048 -0.32274097 -0.28394383
674 -0.5927132 -0.1697829 -0.50164014 -0.015402617 -0.037330378 -0.2330678 -0.11578853 -0.18632437 0.103662804 -0.52029157 0.15044257 -0.054623157 0.2818328 0.3223687 -0.31716323 0.66069233 -0.031386085 -0.104667 0.23764358 -0.3866871 0.5891575 -0.14239891 -0.32410532 -0.25434873 -0.22863202 -0.11088987 0.21066642 0.3850797 0.031949222 0.027728941 -0.5129677 0.62708026 -0.21174338 0.36811346 0.2798125 -0.24251749 -0.08330306 -0.15055665 0.08362261 0.5392736 -0.5025597 -0.24377307 -0.26449305 -0.17476511 -0.14889263 0.10977737 0.36346292 0.3019049 0.05884804 0.2459878 0.10498784 0.37307337 -0.025409084 0.36756513 -0.14195704 0.21495773 0.11394923 0.13698828 0.31479973 0.067808785 -0.39571658 -0.0931325 -0.33566442 -0.32598925
2227 -0.5791884 -0.17434531 -0.50167763 -0.0311185 -0.044116165 -0.2247974 -0.11282595 -0.18824585 0.07787245 -0.48403722 0.16325037 -0.050866034 0.2727172 0.3225487 -0.32043532 0.6201675 -0.033318937 -0.12410563 0.23050192 -0.3938009 0.5712561 -0.15102418 -0.32655352 -0.19426517 -0.20909287 -0.11960301 0.20599094 0.38955423 0.02610008 0.034459032 -0.5164645 0.620611 -0.20495541 0.36324283 0.25549248 -0.23616588 -0.087981634 -0.16475527 0.08016888 0.49393186 -0.46361816 -0.25200695 -0.26903072 -0.17569758 -0.1515463 0.09628225 0.3387269 0.29812488 0.050949335 0.24223095 0.087608024 0.37246358 0.005584199 0.3417291 -0.13364962 0.18629076 0.11425907 0.11116326 0.2801616 0.055303883 -0.4060836 -0.093719386 -0.33006462 -0.2946909
1674 -0.5660417 -0.18670489 -0.48669845 -0.050715502 -0.051315527 -0.23982951 -0.12090332 -0.17800976 0.073147826 -0.46029446 0.18455552 -0.035770457 0.27226803 0.34316 -0.30550724 0.64333284 -0.011530698 -0.15033178 0.21790335 -0.40933776 0.5571043 -0.13349229 -0.3336691 -0.19469088 -0.20201632 -0.080027685 0.18886195 0.38537118 0.022821702 0.057058048 -0.49136305 0.6108959 -0.22372675 0.354309 0.2422275 -0.21831106 -0.0806122 -0.15519778 0.07671655 0.49894646 -0.46542698 -0.21655847 -0.24693775 -0.18989089 -0.16506106 0.1101613 0.33453646 0.28911826 0.03112177 0.24690416 0.13703628 0.35668543 0.00030916874 0.358532 -0.1260851 0.1875021 0.11412821 0.14105752 0.29498366 0.07632717 -0.39277285 -0.08535362 -0.31644997 -0.31421977
1515 -0.5461565 -0.15573253 -0.49275172 -0.031298492 -0.04643652 -0.18915783 -0.10164828 -0.16388215 0.09789882 -0.50090665 0.17068705 -0.04975965 0.25197947 0.31644595 -0.2987346 0.628788 0.0002748063 -0.09806874 0.22145152 -0.3673759 0.5364748 -0.15461357 -0.308646 -0.22183846 -0.22963476 -0.10215234 0.20531401 0.3488858 0.03474895 0.03501141 -0.46652234 0.5958113 -0.20195971 0.36154285 0.26249585 -0.21497287 -0.081971034 -0.16063404 0.038693976 0.51966745 -0.45644102 -0.22550885 -0.25749257 -0.15710862 -0.16355869 0.11126671 0.306197 0.29806626 0.0665071 0.24659736 0.114832066 0.3186029 -0.03147387 0.32783255 -0.11518933 0.21375234 0.11516408 0.1438072 0.31075224 0.076340415 -0.37728983 -0.10392588 -0.3042517 -0.28382924
3756 -0.5023329 -0.16127421 -0.4604117 -0.038212553 -0.06126463 -0.22393543 -0.107787 -0.1480793 0.083004355 -0.43029404 0.120251246 -0.0014448614 0.2415588 0.2914709 -0.28681833 0.587902 -0.025732942 -0.11538613 0.20138575 -0.35922635 0.48723975 -0.11162968 -0.3141596 -0.20101607 -0.21249674 -0.065581635 0.16413422 0.38565537 -0.015929312 0.06967022 -0.43283585 0.5958208 -0.1891057 0.3296971 0.18318483 -0.21892221 -0.06124914 -0.1397683 0.09496864 0.449434 -0.44778258 -0.18615548 -0.21903409 -0.19155951 -0.16361281 0.12482085 0.33411068 0.28046554 0.0428453 0.2381076 0.13431725 0.32316297 0.0039818087 0.3640889 -0.10228005 0.18403682 0.11209562 0.15420705 0.24066965 0.06714105 -0.37428147 -0.084685475 -0.30137286 -0.27928072
3745 -0.11047458 0.41669005 0.19625045 0.05458716 -0.41370434 -0.42994207 0.18671116 -0.8493231 0.28632462 0.23413827 -0.66511726 0.309163 -0.37664682 -0.52862746 -0.6680823 -0.03929138 -1.0091683 0.020771343 0.49342263 0.51129663 0.44959873 0.16448389 0.17352498 0.10924729 0.27453765 -0.22794558 -0.13110356 0.8843074 0.3360162 0.5409735 0.16054852 0.9867568 -0.21485783 -0.19996157 -0.96295846 -0.27596793 0.45538384 0.33786163 0.9099774 -0.37983105 -0.49011546 -0.11932733 -0.21716495 -0.15265399 -0.48625067 -0.19732465 0.42473295 0.74638605 0.6404221 -0.013332377 -0.11261072 0.050495714 0.3972221 0.38862625 -0.011532906 0.3781872 -0.11870841 -0.3749144 -1.0496019 -0.24806598 -0.33418158 -0.29783854 -0.2073839 -0.3964171
1273 -0.068939716 0.43828 0.23912011 0.058615874 -0.4537808 -0.44769403 0.2017007 -0.9362291 0.28883618 0.2894966 -0.73257047 0.34508944 -0.40174335 -0.58216757 -0.7395208 -0.07915685 -1.1130614 0.02263961 0.5347218 0.5806523 0.4641061 0.20889582 0.20837356 0.10464367 0.3227364 -0.23700532 -0.1422301 0.9568222 0.37885708 0.5935195 0.21547748 1.0621309 -0.23407891 -0.26969725 -1.0451844 -0.27360114 0.51900506 0.3674861 0.99847484 -0.44052756 -0.51354176 -0.109978385 -0.22778125 -0.14129886 -0.5294081 -0.2275171 0.4532632 0.79486585 0.7032906 -0.022835642 -0.13392481 0.042978417 0.4386859 0.41661075 -0.009035132 0.39567932 -0.115103245 -0.40727574 -1.1623975 -0.29092488 -0.3375833 -0.31547013 -0.21625106 -0.44888175
1650 -0.6190044 -0.20372431 -0.5373215 -0.023788994 -0.027320873 -0.22426905 -0.11373377 -0.1783657 0.09041872 -0.5276573 0.19414097 -0.07412428 0.28813076 0.35863224 -0.33079565 0.67158735 0.010127909 -0.11796853 0.24217698 -0.42148778 0.60071594 -0.17725812 -0.33589128 -0.2240499 -0.24239835 -0.11817618 0.22497599 0.37939632 0.0395276 0.039398152 -0.5439411 0.63757926 -0.22273654 0.39322484 0.3081833 -0.24207647 -0.10118192 -0.16810383 0.058443826 0.55418795 -0.4942041 -0.24939296 -0.2692704 -0.17191954 -0.15203801 0.12413289 0.34921372 0.31068474 0.049811814 0.27689955 0.11621918 0.3824554 -0.01634579 0.357078 -0.13544811 0.1846195 0.12212337 0.1304378 0.33917058 0.06627443 -0.40543553 -0.09567813 -0.33757097 -0.32250634
2426 -0.53418285 -0.18645106 -0.48217136 -0.01916873 -0.025574798 -0.18570885 -0.12883762 -0.1465972 0.08507827 -0.465919 0.14691219 -0.042084806 0.27130517 0.32413968 -0.266437 0.5955316 0.005212751 -0.10878992 0.21715224 -0.37136784 0.5137127 -0.14832051 -0.3125605 -0.19434747 -0.22511184 -0.0802818 0.19074802 0.3525041 0.008825659 -0.0073033636 -0.46764535 0.5422767 -0.1749468 0.3314534 0.24572371 -0.20823428 -0.10169318 -0.14968838 0.07648373 0.499545 -0.43354955 -0.23379485 -0.22183077 -0.16197646 -0.14589491 0.09096672 0.31060776 0.25370383 0.050282095 0.2426111 0.12333348 0.34037486 -0.02476717 0.32873103 -0.12896292 0.1586588 0.117692925 0.14343996 0.29872945 0.05666247 -0.3536219 -0.06532915 -0.2898613 -0.28538334
3048 -0.6670893 -0.22536598 -0.5358935 -0.032348715 -0.0053820224 -0.185655 -0.09652918 -0.18089564 0.0972848 -0.5391533 0.24573128 -0.083988324 0.27717528 0.37506106 -0.32526466 0.69628793 0.035677463 -0.10965578 0.26493934 -0.44645387 0.61895424 -0.1682615 -0.31487653 -0.22309051 -0.21772051 -0.14612195 0.25547665 0.36353928 0.07707284 0.0068396614 -0.55625963 0.6196689 -0.21771105 0.40787604 0.3360753 -0.21107878 -0.12160802 -0.15401258 0.013789628 0.603204 -0.4929411 -0.29069853 -0.26269928 -0.14108424 -0.14798531 0.08069227 0.32750967 0.3266695 0.07497795 0.29587469 0.094850786 0.38823518 -0.037839316 0.32806745 -0.14785129 0.2010336 0.10419166 0.12397191 0.34798852 0.08625881 -0.38576823 -0.08487825 -0.3464286 -0.3127116
2829 -0.07642455 0.3858967 0.22080792 0.029417759 -0.43856657 -0.4074772 0.20649327 -0.8471567 0.2757586 0.26685467 -0.6844133 0.30839118 -0.38086867 -0.53439695 -0.68105733 -0.08970612 -1.0401436 0.004582918 0.48625472 0.48778385 0.43304336 0.19774258 0.19302855 0.08583789 0.30737498 -0.21984461 -0.11807095 0.87921 0.36378404 0.5766046 0.16005063 1.0016174 -0.23734033 -0.25013584 -0.9742536 -0.2361033 0.47758386 0.35249287 0.92043024 -0.41514093 -0.4978596 -0.10650154 -0.1988597 -0.13565283 -0.46741816 -0.17323798 0.4144961 0.73792905 0.61321247 -0.034543518 -0.13496497 0.039315544 0.3924698 0.3985778 -0.034133475 0.37019303 -0.11282981 -0.3988056 -1.0691626 -0.2539269 -0.33293596 -0.29034698 -0.20879385 -0.42209947
3945 -0.50394785 -0.14301914 -0.42960045 -0.007712606 -0.045183986 -0.22209214 -0.12084255 -0.17039528 0.08305233 -0.44548038 0.12905633 -0.036585808 0.26734146 0.29451105 -0.25818154 0.55631745 -0.025545469 -0.10960459 0.19818835 -0.33393088 0.5195649 -0.12474127 -0.30140388 -0.18726088 -0.20671347 -0.07117553 0.16830216 0.33917657 -0.00010754717 0.009618058 -0.43292746 0.5639176 -0.18562214 0.31622133 0.24532686 -0.2246347 -0.072462425 -0.14220266 0.092191994 0.45852605 -0.41605094 -0.19834402 -0.22045915 -0.17462687 -0.13858826 0.12099295 0.33174282 0.24035484 0.030642824 0.21243282 0.12878649 0.33255994 0.00722684 0.33321944 -0.109677754 0.16571279 0.10030351 0.1275065 0.28362247 0.06485935 -0.3437424 -0.06753972 -0.2953439 -0.29448807
3635 -0.5801411 -0.19628513 -0.51117116 -0.055344984 -0.044655863 -0.22407658 -0.13499849 -0.15397824 0.104588486 -0.49801844 0.17225549 -0.026529478 0.29077286 0.33967417 -0.29032996 0.67732644 0.0030892629 -0.13671991 0.23658158 -0.42131245 0.5681163 -0.14356427 -0.35614407 -0.21479249 -0.2362924 -0.082142174 0.19648953 0.3889361 -0.0018283437 0.019693617 -0.5132364 0.61052185 -0.19960125 0.35926756 0.26284084 -0.21978493 -0.10611954 -0.14384659 0.079327874 0.5303306 -0.49633327 -0.2279706 -0.23286654 -0.17899834 -0.17036141 0.10421531 0.35090858 0.2704018 0.034056995 0.26600778 0.15984549 0.37694314 -0.019772658 0.36919087 -0.14111976 0.1950431 0.12536362 0.17093192 0.32284367 0.084460795 -0.3848261 -0.055983175 -0.32767248 -0.3148395
3366 -0.5429516 -0.15827788 -0.4774559 -0.04558796 -0.036952443 -0.2171414 -0.10441716 -0.15566681 0.10401245 -0.46811035 0.14269361 -0.03360537 0.26283413 0.28914917 -0.2880644 0.6185988 -0.018969899 -0.09695437 0.21044162 -0.3745501 0.51413006 -0.13889983 -0.3135692 -0.2164333 -0.2049587 -0.08157434 0.18555495 0.36994314 0.014133518 0.029308442 -0.46842924 0.57731986 -0.20932025 0.35484147 0.2362698 -0.23387791 -0.082921594 -0.13913111 0.071293026 0.5012558 -0.46455052 -0.21065904 -0.24603938 -0.16339773 -0.15918384 0.099244066 0.34116086 0.29961133 0.048412725 0.2422712 0.10856455 0.3378282 -0.022093842 0.33561203 -0.125935 0.22507207 0.1107279 0.13869031 0.28813192 0.07926801 -0.3719445 -0.09342441 -0.31408432 -0.2836048
1878 -0.09656169 0.3886286 0.23954758 0.02949379 -0.4398416 -0.43950152 0.19541772 -0.89300567 0.27220285 0.24600074 -0.6872223 0.31552204 -0.37343377 -0.56078696 -0.7313462 -0.0808008 -1.0763206 0.007651819 0.49274713 0.48871154 0.46439034 0.1990462 0.18668713 0.06088655 0.32038027 -0.24617715 -0.10566185 0.9061354 0.39811394 0.61066985 0.13575105 1.0566771 -0.26302984 -0.24726884 -0.9886016 -0.2463821 0.49072176 0.35167935 0.9497749 -0.41802248 -0.5393573 -0.1171658 -0.22049914 -0.123953685 -0.46557465 -0.19812158 0.43823016 0.77774215 0.64182836 -0.038511295 -0.15853833 0.062228225 0.40244955 0.4057028 -0.038546406 0.3758258 -0.10430796 -0.42324832 -1.1136583 -0.27248758 -0.3568489 -0.31323752 -0.21733776 -0.44762096
1340 -0.5090575 -0.14777528 -0.45044902 -0.02418509 -0.0324431 -0.20705673 -0.13110256 -0.10372889 0.115531646 -0.46908092 0.13013338 -0.006136934 0.2633911 0.28431076 -0.22743264 0.6097009 0.014606504 -0.112845816 0.19749525 -0.35231426 0.47739854 -0.12194321 -0.3411506 -0.20973466 -0.22392574 -0.039555576 0.1536926 0.3442206 -0.04468099 -0.005334522 -0.43360952 0.54913485 -0.17644657 0.33428904 0.22304852 -0.20450155 -0.10331601 -0.12065481 0.07270352 0.47710878 -0.42454663 -0.1807933 -0.1993412 -0.18354149 -0.16277698 0.13070177 0.3412755 0.2316483 0.02580238 0.23295525 0.19063511 0.32298663 -0.022881418 0.3523733 -0.117653504 0.19836818 0.10416637 0.1820356 0.31566066 0.10128121 -0.32772118 -0.06289089 -0.28250018 -0.28119627
4105 -0.47416985 -0.14429459 -0.42361927 -0.029198207 -0.061149325 -0.2198362 -0.10371104 -0.12941138 0.07978809 -0.4173054 0.10692415 -0.0193116 0.23390707 0.28347558 -0.24647617 0.56315917 -0.017364474 -0.1252557 0.18963559 -0.35766786 0.45835996 -0.10737252 -0.31265682 -0.1970642 -0.19916363 -0.056536455 0.15195201 0.3428792 -0.018486824 0.05399007 -0.4223338 0.5527065 -0.18530425 0.30288923 0.20470367 -0.19960248 -0.061424267 -0.13924932 0.10558252 0.43010706 -0.4311733 -0.17064025 -0.2043037 -0.17589599 -0.1471181 0.130434 0.31280524 0.23949814 0.009964514 0.1968237 0.14593296 0.30622497 -0.0062657287 0.3459241 -0.114170134 0.17436871 0.107323855 0.14460322 0.26506042 0.06475167 -0.35752678 -0.0681343 -0.27985477 -0.27465603
2713 -0.06054396 0.38209164 0.21839733 0.04923091 -0.39506924 -0.4042463 0.19785294 -0.801695 0.2560694 0.25022107 -0.6492534 0.29397565 -0.36372688 -0.51995116 -0.63017577 -0.07784799 -0.98425186 0.026588144 0.45044804 0.50012803 0.39815935 0.1867708 0.19205424 0.080258556 0.2892532 -0.20538712 -0.12921749 0.83161604 0.33128738 0.51937467 0.17522594 0.93427724 -0.2083943 -0.22601879 -0.9211247 -0.23969135 0.45067716 0.3295111 0.87100476 -0.3970886 -0.46416503 -0.09263413 -0.18268245 -0.12942927 -0.4400878 -0.17873268 0.4146506 0.6845584 0.58598286 -0.021460373 -0.12700266 0.029183032 0.38282892 0.38981193 -0.023137368 0.34674096 -0.1104298 -0.3572027 -1.0342611 -0.25355697 -0.28466007 -0.2868748 -0.1880081 -0.37439632
4085 -0.48513472 -0.14298221 -0.44522187 -0.04053048 -0.08124245 -0.21787906 -0.094418645 -0.15273653 0.08129607 -0.40219846 0.111150995 -0.010466351 0.21614857 0.26704115 -0.27199113 0.5463735 -0.032574933 -0.12944765 0.20067814 -0.37605003 0.4730118 -0.11649585 -0.3053742 -0.19374305 -0.19948825 -0.07997121 0.1572383 0.36561576 0.0132549405 0.09669396 -0.42245215 0.58087385 -0.1972567 0.29933476 0.16036966 -0.20688348 -0.04630822 -0.123535134 0.10631179 0.4006457 -0.44955692 -0.19184382 -0.20331347 -0.18581945 -0.15601844 0.13573341 0.31838766 0.26747742 0.024228124 0.21469693 0.13203706 0.30804384 0.010651739 0.36337325 -0.11565719 0.16805488 0.09610959 0.11490326 0.23459649 0.059152402 -0.3814324 -0.07582547 -0.27631783 -0.27127022
3049 -0.43311214 -0.15551955 -0.34493032 -0.053418517 -0.06179578 -0.18437338 -0.09615274 -0.15898305 0.09662582 -0.36446592 0.07879834 0.016812442 0.19847669 0.22486848 -0.23915386 0.5043982 -0.04566608 -0.11106698 0.19619502 -0.30677035 0.44064862 -0.07229152 -0.26198387 -0.18218933 -0.13317426 -0.042631876 0.1320281 0.34957114 0.0069439714 0.05599834 -0.36449128 0.5195529 -0.17721088 0.23369628 0.13662088 -0.15639396 -0.05014499 -0.07134565 0.12634456 0.3788009 -0.41482168 -0.15056695 -0.16854537 -0.14730234 -0.15030317 0.08599597 0.30070147 0.23127636 0.043474816 0.20370565 0.14074582 0.2825332 -0.0072408235 0.32698634 -0.117155604 0.16992888 0.07472478 0.102395475 0.1812698 0.059699498 -0.29041702 -0.06258118 -0.25887975 -0.28180906
2340 -0.50011486 -0.18535186 -0.44588992 -0.041720696 -0.06358001 -0.21839201 -0.09674159 -0.16598837 0.08237598 -0.40578428 0.13141316 -0.018499384 0.24117121 0.28892463 -0.28110304 0.5718724 -0.034958225 -0.119967595 0.20100936 -0.37388462 0.4924323 -0.108628154 -0.28921303 -0.20965585 -0.18285179 -0.07716571 0.16684124 0.39058834 0.011485963 0.055440113 -0.43555284 0.5757661 -0.18372498 0.30221137 0.18511608 -0.20732166 -0.06397455 -0.12690881 0.09244514 0.44066346 -0.46047175 -0.17380963 -0.21291332 -0.18283015 -0.15451303 0.117508896 0.3227162 0.27159047 0.037049733 0.2381593 0.122360274 0.32379168 0.0053895544 0.3460037 -0.122786574 0.17165062 0.08675818 0.12210334 0.24267451 0.046284754 -0.34606674 -0.070863195 -0.29188913 -0.29352733
3398 -0.38817933 -0.13511108 -0.33485568 -0.06522334 -0.08614471 -0.20069394 -0.09395009 -0.12931053 0.08595307 -0.34045044 0.043690193 0.009293869 0.19527252 0.19203791 -0.23332539 0.45648184 -0.067348264 -0.11460167 0.16550021 -0.32300648 0.39916852 -0.060968716 -0.27567437 -0.20130245 -0.15580773 -0.05131993 0.12520869 0.33511224 0.002834628 0.087388895 -0.36835104 0.503154 -0.19111082 0.20409572 0.12424384 -0.16593693 -0.0469784 -0.08818236 0.14295278 0.3287676 -0.40843353 -0.14845702 -0.17018011 -0.15970334 -0.12094523 0.102674626 0.2829022 0.21844174 0.012023583 0.15580283 0.118806206 0.27027532 -0.014929774 0.3076093 -0.10918897 0.14741847 0.08660982 0.09222919 0.17625651 0.03539705 -0.32267085 -0.050507147 -0.25021634 -0.2712349
2926 -0.4458937 -0.13841231 -0.36414945 -0.03213203 -0.051243756 -0.20791818 -0.077688836 -0.1691731 0.08187862 -0.36989358 0.10516067 -0.01205335 0.19914828 0.23708339 -0.26957756 0.50195205 -0.05141819 -0.10594659 0.17859913 -0.30466485 0.4544739 -0.08447886 -0.2462879 -0.17745267 -0.14671516 -0.07596264 0.15997867 0.33555675 0.04219781 0.06913478 -0.39030588 0.53786385 -0.18300736 0.2584154 0.16396408 -0.18206036 -0.044323746 -0.09309772 0.09823207 0.38184988 -0.3999955 -0.15864268 -0.19636576 -0.14236248 -0.1224366 0.092270404 0.29306743 0.2458434 0.040470093 0.18971375 0.083226494 0.29488263 0.0038830715 0.31342745 -0.11753377 0.16423748 0.068837695 0.07980059 0.18490346 0.038950656 -0.31564063 -0.077415176 -0.27113593 -0.2689124
2318 -0.45281124 -0.13219672 -0.39546597 -0.027670855 -0.06483804 -0.20896573 -0.09346253 -0.16580556 0.08819589 -0.37314907 0.111400135 -0.004225773 0.22129121 0.25513187 -0.26977694 0.5231014 -0.04957063 -0.11853267 0.19449548 -0.31989962 0.46428075 -0.10252247 -0.26660925 -0.1778408 -0.15580684 -0.067256406 0.13838473 0.34981868 0.022036482 0.06325239 -0.3817894 0.54160804 -0.19811185 0.2633584 0.1527545 -0.17486975 -0.05928876 -0.11419956 0.11284475 0.38505694 -0.40241012 -0.1617742 -0.18949002 -0.16123764 -0.143172 0.10171211 0.3046725 0.24673715 0.033885717 0.19471638 0.12941262 0.28480494 -0.002429573 0.3198633 -0.11137135 0.15221377 0.08223857 0.10942297 0.21446897 0.06907816 -0.33270064 -0.069569394 -0.2692539 -0.27289295
553 -0.42843288 -0.14283288 -0.39440304 -0.037540786 -0.08664163 -0.20602864 -0.09581031 -0.15975174 0.08400176 -0.3632588 0.086810604 -0.0006859954 0.21854047 0.24075316 -0.2594473 0.5012713 -0.04912872 -0.12718208 0.17820553 -0.33096135 0.43631986 -0.087705515 -0.28917962 -0.1732733 -0.16945828 -0.046573464 0.1435484 0.36024985 -0.004426883 0.08254393 -0.37922233 0.54674727 -0.19307487 0.2435667 0.15071544 -0.18070562 -0.043197244 -0.10689249 0.11146318 0.36769664 -0.41360816 -0.162213 -0.1933519 -0.17126119 -0.1499997 0.117874205 0.29151884 0.23185086 0.0135717755 0.19317134 0.13295957 0.27186042 -0.009762312 0.32750395 -0.09539149 0.15029715 0.093808375 0.12276731 0.2077756 0.062138427 -0.3395897 -0.06445811 -0.26367447 -0.26652855
1890 -0.41690487 -0.14058042 -0.37532592 -0.06554217 -0.06861743 -0.19678819 -0.10163267 -0.15314682 0.08581286 -0.3634966 0.09806519 -0.0064774114 0.20517221 0.2224638 -0.26104987 0.5018611 -0.03557774 -0.10340278 0.15907632 -0.313306 0.43031877 -0.08195648 -0.2590185 -0.20267318 -0.15033187 -0.049583767 0.14250773 0.33683848 0.010001257 0.07493795 -0.36920103 0.52193666 -0.1981089 0.2445423 0.1451308 -0.17966504 -0.05758481 -0.10148618 0.09132692 0.37663284 -0.41539896 -0.13966164 -0.19093521 -0.1543405 -0.1412335 0.09955371 0.28752062 0.24659312 0.029309174 0.19995166 0.10881307 0.2759216 -0.0198407 0.302624 -0.098379664 0.17965804 0.084409535 0.10304886 0.20794186 0.05856962 -0.30979282 -0.07508184 -0.25679645 -0.2713919
2063 -0.44110855 -0.12708887 -0.37375543 -0.041138243 -0.0935628 -0.20388237 -0.090534426 -0.17756186 0.10347744 -0.37965575 0.07311428 -0.001712795 0.19462079 0.20892614 -0.2786712 0.49870792 -0.088409476 -0.113792345 0.2013487 -0.30925652 0.45654848 -0.08775145 -0.25885665 -0.19060832 -0.1578221 -0.07900395 0.1462639 0.3559285 0.03735691 0.09636726 -0.393972 0.56318396 -0.1908373 0.24921912 0.1277037 -0.18414812 -0.033991013 -0.09542441 0.1361486 0.3653527 -0.43891692 -0.1871961 -0.20602009 -0.13860212 -0.1603269 0.09403045 0.30240053 0.28354672 0.051525947 0.1895293 0.094723396 0.27509096 -0.010170319 0.31110477 -0.11680365 0.18478899 0.092995346 0.07976408 0.17730862 0.035184164 -0.35489225 -0.070972994 -0.26475027 -0.29104117
1289 -0.40105554 -0.12006431 -0.35982844 -0.019408641 -0.05595764 -0.18805367 -0.08830893 -0.14527549 0.08638384 -0.36249056 0.06820405 -0.002002554 0.1864434 0.2093989 -0.2458432 0.46623117 -0.04791315 -0.08388709 0.17337394 -0.27291843 0.40619513 -0.08575896 -0.24501707 -0.19877753 -0.15726076 -0.05666752 0.12677243 0.3295221 0.0029235987 0.05036998 -0.3380753 0.4926767 -0.1573191 0.23903166 0.13371296 -0.16473266 -0.036833562 -0.104741 0.09375405 0.35521996 -0.38470915 -0.13470279 -0.17093857 -0.15030783 -0.14054002 0.09695375 0.28548282 0.23734014 0.03724095 0.18526897 0.11006966 0.25342256 -0.0042741597 0.30937845 -0.089665845 0.16488068 0.08976498 0.1251142 0.18765816 0.034895215 -0.29896057 -0.06640034 -0.2362357 -0.2450041
4000 -0.4626593 -0.14442945 -0.38997772 -0.05490444 -0.08072708 -0.20776103 -0.08596429 -0.16936268 0.0953684 -0.37857786 0.101916745 -0.011041769 0.21275206 0.247922 -0.2788498 0.52867126 -0.05354341 -0.11822388 0.19075492 -0.34977314 0.4756033 -0.09007214 -0.28075314 -0.19192533 -0.15973806 -0.074516855 0.15120661 0.36534205 0.031958804 0.10011658 -0.40949392 0.5656663 -0.20408213 0.26799184 0.15278293 -0.18841217 -0.0505552 -0.11119476 0.11308499 0.37823972 -0.43966624 -0.17728867 -0.20043936 -0.15734491 -0.14928746 0.1042677 0.29458392 0.26415804 0.025853055 0.20228525 0.112206824 0.28768873 -0.003744555 0.3209701 -0.10247257 0.17975146 0.080404036 0.09113569 0.2070565 0.0645785 -0.3554855 -0.0708123 -0.27073637 -0.2846326
879 -0.39301154 -0.1302536 -0.3202345 -0.023095377 -0.06958402 -0.19784407 -0.066731796 -0.17863643 0.06537932 -0.3008237 0.076324485 0.0029730422 0.15991667 0.20461789 -0.25932854 0.43812126 -0.066458546 -0.10534248 0.17537187 -0.26023054 0.41605926 -0.06883135 -0.21817403 -0.15951921 -0.11612014 -0.07233444 0.13036728 0.34464717 0.037314244 0.07555055 -0.33449483 0.51467353 -0.17922671 0.22015046 0.114794835 -0.1497593 -0.021820312 -0.07406199 0.112385705 0.31732586 -0.37387443 -0.12342992 -0.1646351 -0.1447577 -0.13803546 0.09930108 0.27641883 0.23604816 0.0458052 0.18372844 0.094345674 0.26320577 0.017332805 0.31094792 -0.09335487 0.14752842 0.063757606 0.07712687 0.13142274 0.04624445 -0.289643 -0.062104113 -0.23387633 -0.2552516
3414 -0.38923725 -0.10112837 -0.31601223 -0.03117906 -0.087591216 -0.21350057 -0.08561135 -0.16542485 0.09705909 -0.30906913 0.029265167 0.01639886 0.17086962 0.1764864 -0.25684464 0.44627464 -0.10753632 -0.10880289 0.17251982 -0.25837368 0.42578068 -0.06288668 -0.2517188 -0.17168693 -0.12168173 -0.050305847 0.1024224 0.35330957 0.009719125 0.10061953 -0.3336176 0.5428341 -0.18072231 0.21234941 0.07364369 -0.1790947 -0.030048868 -0.058985922 0.16542663 0.3038923 -0.40770787 -0.14154077 -0.17268573 -0.16613007 -0.14559624 0.11043198 0.30274254 0.23776388 0.035305385 0.14871907 0.1239134 0.25344145 0.018703468 0.32880607 -0.09770436 0.16495638 0.06745331 0.07286549 0.12293118 0.043436605 -0.32045346 -0.06848981 -0.24290101 -0.27672136
4041 -0.42819697 -0.11463544 -0.357261 -0.037479065 -0.07327896 -0.20632531 -0.07253321 -0.18465321 0.095142014 -0.34701332 0.08536897 -0.005974233 0.1742561 0.21082036 -0.27009994 0.4812066 -0.07305256 -0.09241356 0.18803318 -0.2821781 0.44764075 -0.09900874 -0.23368448 -0.1720286 -0.15125829 -0.08164953 0.14846802 0.34712592 0.030302966 0.07957607 -0.3612722 0.5353757 -0.18023847 0.24323687 0.13032722 -0.19097815 -0.04162299 -0.08660193 0.12211639 0.3557564 -0.39482155 -0.16352853 -0.20166501 -0.15364255 -0.15379356 0.07884947 0.2784459 0.25757542 0.05679266 0.19602658 0.08718726 0.27817276 0.0053872275 0.29747236 -0.091244474 0.16920444 0.077304184 0.079517685 0.15611638 0.036132857 -0.31368056 -0.0775205 -0.24845138 -0.26067305
3219 0.43182164 0.33689722 -0.13547109 0.2772193 -1.0083498 -0.4053153 -0.426673 -0.3919552 0.18963562 -0.08937093 -0.49489617 0.3436216 0.19102682 -0.18124352 -0.24888152 0.0272093 -0.23089471 -0.67053115 0.15369476 -0.0077754376 0.25349674 0.040556803 -0.37487912 0.05656785 -0.076886155 0.54976636 -0.36573118 0.4256594 -0.06961951 0.48845425 0.6669767 0.9593358 -0.5823577 -0.4609205 -0.44661364 0.0929803 0.41600773 -0.009478475 0.6830572 -0.2803547 -0.29201326 0.26894966 -0.033299536 -0.33084628 -0.60567635 0.6615444 0.046060998 -0.082363665 -0.04661897 -0.4607893 1.179219 -0.41254205 -0.07997444 0.70044893 0.27476606 -0.17212752 0.259008 0.46596143 0.43206334 0.31247503 -0.57215476 0.031267192 0.15230817 -0.65407526
1189 -0.3910568 -0.12856261 -0.33868736 -0.05565451 -0.08761781 -0.19164576 -0.08675037 -0.16250692 0.08737356 -0.33380124 0.060040094 -0.0019368257 0.18000622 0.19641039 -0.24546869 0.4602482 -0.07667168 -0.10943772 0.17327833 -0.304588 0.42048162 -0.067866325 -0.24941498 -0.18055789 -0.14156072 -0.06422362 0.12665612 0.33910134 0.020383634 0.08762225 -0.36763144 0.5167982 -0.17804688 0.21210997 0.1168821 -0.16013694 -0.030363837 -0.07525026 0.1444833 0.32093117 -0.40116832 -0.15237744 -0.17414068 -0.14365533 -0.13083053 0.09956874 0.27934617 0.23015927 0.030768054 0.1620528 0.09738524 0.26524898 -0.00056032586 0.3156252 -0.10746302 0.150018 0.07889144 0.07412902 0.1552175 0.031000067 -0.32345977 -0.05213513 -0.25147042 -0.26263633
